{"conv1.weight": [[[[0.1591941863298416, 0.18597917258739471, 0.021398818120360374, -0.09745839238166809, -0.08445943892002106], [0.32665032148361206, 0.5329236388206482, 0.3187406659126282, 0.08326861262321472, -0.18665172159671783], [0.6362459063529968, 0.7668639421463013, 0.6416800618171692, -0.017699360847473145, -0.18939527869224548], [0.5593348741531372, 0.8060259222984314, 0.7174426317214966, 0.45112693309783936, 0.19159765541553497], [0.3663416802883148, 0.605326771736145, 0.6391447186470032, 0.6348119378089905, 0.6052642464637756]]], [[[0.0713777169585228, -0.14807488024234772, -0.1827927529811859, -0.16647054255008698, -0.09617844969034195], [0.19752804934978485, -0.015637600794434547, -0.044641248881816864, 0.003218318335711956, 0.030352497473359108], [-0.06069494038820267, 0.16866372525691986, -0.14406052231788635, 0.1311994045972824, 0.05248386785387993], [-0.056793827563524246, -0.19298085570335388, -0.073991559445858, 0.05850960686802864, -0.14828871190547943], [0.16601666808128357, -0.07960275560617447, -0.10369914025068283, 0.009430133737623692, -0.06221780925989151]]], [[[-0.18986327946186066, -0.0017654282273724675, -0.03303026407957077, -0.10032475739717484, -0.09697692841291428], [-0.018710415810346603, -0.09418070316314697, -0.18087682127952576, 0.06902223825454712, 0.2636776268482208], [0.12091340869665146, -0.07415959239006042, -0.20889891684055328, 0.1986907571554184, 0.1695280522108078], [-0.07184205949306488, -0.17416685819625854, 0.02692442014813423, 0.22774702310562134, -0.01865331456065178], [-0.0781158059835434, -0.018126575276255608, -0.009663148783147335, 0.27238187193870544, 0.1039639338850975]]], [[[-0.19393347203731537, -0.05828442424535751, 0.0062123853713274, 0.1689060777425766, -0.015100373886525631], [-0.12783631682395935, 0.15667012333869934, 0.20074550807476044, -0.05454929918050766, 0.04998961091041565], [0.21007171273231506, -0.029090136289596558, -0.033616550266742706, -0.1797434538602829, -0.21598906815052032], [-0.07674211263656616, 0.11113321781158447, 0.09243390709161758, 0.1208326444029808, 0.18219304084777832], [-0.11086472868919373, 0.1439504325389862, -0.1388798952102661, 0.03951754420995712, 0.12492313235998154]]], [[[0.052276138216257095, -0.06407246738672256, 0.226604625582695, 0.39838048815727234, 0.2632971405982971], [0.23133082687854767, 0.4539943337440491, 0.5888687968254089, 0.5859031081199646, 0.09043281525373459], [0.3462459146976471, 0.7335578799247742, 0.7616360783576965, 0.6395315527915955, 0.04168980196118355], [0.3129846751689911, 0.07570383697748184, 0.2278253585100174, 0.24318823218345642, 0.29525038599967957], [-0.24576522409915924, 0.06935445219278336, -0.08860314637422562, 0.04293007776141167, 0.048028334975242615]]], [[[0.16619610786437988, -0.20106364786624908, 0.07036181539297104, -0.10222391039133072, -0.14547841250896454], [-0.051703039556741714, 0.15294766426086426, -0.0854785218834877, -0.18025590479373932, -0.0657811239361763], [-0.03185318782925606, -0.10965517163276672, -0.21993209421634674, 0.03272232413291931, 0.15361814200878143], [0.07625816762447357, -0.15172773599624634, -0.15227378904819489, 0.0453607439994812, -0.08095144480466843], [-0.08051997423171997, -0.1936398595571518, 0.08156343549489975, -0.03458315506577492, 0.10021097958087921]]]], "conv1.bias": [7.907037070253864e-05, -0.0035505155101418495, -0.1262771040201187, -0.171633780002594, 0.027407389134168625, 0.2233179211616516], "conv2.weight": [[[[0.3486260175704956, 0.03618689626455307, -0.267845094203949], [0.29804912209510803, 0.07877959311008453, -0.20254266262054443], [0.31865498423576355, -0.03558268025517464, -0.13779811561107635]], [[-0.029728878289461136, 0.13599622249603271, 0.002851787954568863], [0.04450124129652977, -0.11829250305891037, 0.09676647186279297], [-0.07972187548875809, 0.0109010124579072, -0.03111906349658966]], [[0.12843507528305054, -0.11561215668916702, 0.10580093413591385], [-0.004266683012247086, 0.015282701700925827, 0.018902335315942764], [0.09066851437091827, -0.11153333634138107, 0.036836542189121246]], [[-0.06288179755210876, -0.09790363162755966, -0.02162308059632778], [0.009314495138823986, -0.03949705883860588, 0.02603849768638611], [0.06888521462678909, 0.06277036666870117, 0.12228238582611084]], [[0.2512352466583252, -0.08087508380413055, -0.1388716846704483], [-0.007752165663987398, -0.20639503002166748, -0.18493671715259552], [0.2026735097169876, -0.11316528171300888, -0.0718424990773201]], [[0.06585916131734848, 0.09302041679620743, 0.0257294699549675], [0.05132872238755226, -0.045488592237234116, -0.010185329243540764], [-0.04335484653711319, 0.08447791635990143, -0.09344223886728287]]], [[[-0.02987562119960785, -0.13465693593025208, 0.2564307451248169], [0.09951247274875641, 0.19496168196201324, 0.29146644473075867], [-0.05593155696988106, 0.3253273069858551, 0.41003429889678955]], [[-0.05276870355010033, 0.05053897574543953, 0.132764995098114], [-0.06820996105670929, 0.09233038127422333, -0.018885530531406403], [0.0025885342620313168, 0.005546052008867264, 0.10727227479219437]], [[-0.09772186726331711, 0.0793699249625206, 0.0016504150116816163], [-0.1225568875670433, 0.1569589227437973, 0.0890628769993782], [-0.02890278957784176, 0.09505723416805267, -0.05064016953110695]], [[-0.02008085511624813, 0.10142160952091217, -0.08080232888460159], [-0.11733915656805038, -6.892480450915173e-05, -0.08566443622112274], [-0.06789268553256989, 0.11382878571748734, 0.014875825494527817]], [[-0.15620030462741852, -0.1472959667444229, 0.025142168626189232], [0.052774880081415176, -0.029489712789654732, 0.2992568016052246], [-0.06938504427671432, 0.2440778762102127, 0.16663967072963715]], [[-0.08028054982423782, 0.05487585440278053, 0.11076776683330536], [0.0067813461646437645, -0.00966994371265173, 0.03548121452331543], [-0.06908418238162994, 0.015157912857830524, -0.12060393393039703]]], [[[0.1772887110710144, -0.1820107251405716, -0.09963985532522202], [0.4145675301551819, 0.39676764607429504, 0.32811006903648376], [0.17080426216125488, -0.07229651510715485, 0.01592846028506756]], [[0.05768483504652977, 0.02011466771364212, -0.1320216953754425], [-0.06984977424144745, -0.13434576988220215, 0.09232637286186218], [0.127404123544693, -0.011368575505912304, -0.012816556729376316]], [[-0.17328974604606628, -0.026046890765428543, -0.06240323185920715], [-0.1759367436170578, -0.0452418252825737, 0.03616805747151375], [-0.002336634788662195, -0.1799621433019638, -0.07266532629728317]], [[0.0042140488512814045, 0.06509093195199966, -0.08604001998901367], [-0.023292675614356995, -0.05674806237220764, 0.10507135838270187], [-0.03148214519023895, -0.014835195615887642, 0.011761141009628773]], [[-0.17264561355113983, -0.40673142671585083, -0.4717801511287689], [0.06135326251387596, -0.05099982023239136, 0.17510183155536652], [0.3166586458683014, 0.316038578748703, 0.41611966490745544]], [[-0.0933602824807167, -0.06657008081674576, 0.058147501200437546], [-0.05675031244754791, -0.1318175345659256, -0.004744558595120907], [0.011400563642382622, 0.061036791652441025, -0.17892444133758545]]], [[[0.2413979172706604, 0.5192449688911438, 0.3379600942134857], [-0.2387416660785675, 0.24930912256240845, 0.615325927734375], [-0.6237003207206726, -0.3737699091434479, 0.2753763794898987]], [[-0.12573879957199097, -0.023165203630924225, 0.09768485277891159], [0.1151927262544632, -0.055303629487752914, 0.06820821762084961], [0.024323394522070885, 0.11457642912864685, 0.06790953874588013]], [[-0.11024800688028336, -0.047413453459739685, 0.02179819345474243], [0.004451372195035219, -0.16696546971797943, -0.00036410405300557613], [-0.029926510527729988, 0.013686934486031532, -0.14667446911334991]], [[-0.09124182909727097, 0.10831901431083679, 0.07524898648262024], [0.08175373822450638, 0.06041997671127319, -0.02816484309732914], [0.03299705311655998, -0.09320840239524841, -0.0690341517329216]], [[0.35372310876846313, 0.2820678651332855, -0.01777815632522106], [0.20197051763534546, 0.18481141328811646, 0.08383335918188095], [-0.31327611207962036, -0.1081850528717041, 0.40679532289505005]], [[-0.17450837790966034, -0.02954372577369213, -0.05543352663516998], [-0.0962463840842247, -0.013834713958203793, -0.1738755851984024], [0.07092683017253876, 0.09275025874376297, 0.032142721116542816]]], [[[-0.1696513146162033, -0.031511079519987106, 0.44283193349838257], [0.006566946394741535, 0.3121597468852997, 0.18410713970661163], [0.10763946175575256, 0.26797786355018616, 0.3009466230869293]], [[-0.08859105408191681, 0.017371760681271553, 0.0008592049707658589], [0.07284705340862274, 0.060544710606336594, 0.07414507120847702], [-0.011362269520759583, 0.10350240021944046, 0.05382325127720833]], [[0.10545174032449722, 0.02882973477244377, -0.027635103091597557], [-0.003910508006811142, 0.06508855521678925, -0.054237525910139084], [-0.03378405421972275, -0.06499844789505005, -0.155263289809227]], [[0.049410171806812286, -0.032075852155685425, 0.018305109813809395], [-0.01039152592420578, -0.018268262967467308, 0.07736311107873917], [-0.006197787821292877, 0.07224331796169281, 0.09640399366617203]], [[-0.06747474521398544, 0.003738040803000331, 0.11483503878116608], [-0.05526650324463844, 0.3137756884098053, 0.29615291953086853], [0.3211338520050049, 0.3657835125923157, 0.09390495717525482]], [[0.08055240660905838, 0.05084076523780823, 0.01423258800059557], [0.05231418460607529, -0.12253397703170776, 0.11168058216571808], [-0.04698608070611954, 0.05147752910852432, -0.1611030101776123]]], [[[-0.0010442176135256886, -0.08067099004983902, -0.07160058617591858], [-0.1359795480966568, -0.015755368396639824, -0.03811033442616463], [-0.04357360675930977, 0.04030546173453331, -0.014352685771882534]], [[0.07988331466913223, 0.09194277971982956, -0.13145972788333893], [0.03560660779476166, -0.12550540268421173, -0.10386239737272263], [-0.025167344138026237, -0.08025411516427994, -0.004344171844422817]], [[0.01844211481511593, -0.0886463150382042, 0.06387324631214142], [-0.11849420517683029, 0.09743685275316238, -0.09383538365364075], [-0.10370728373527527, -0.08951906114816666, 0.03490655496716499]], [[-0.07882945239543915, -0.11526517570018768, 0.10245480388402939], [-0.12540976703166962, 0.11885206401348114, -0.10621517896652222], [0.10919535160064697, -0.019940810278058052, -0.07468031346797943]], [[0.13370832800865173, -0.07864581793546677, -0.12265267223119736], [-0.0006211749860085547, -0.1178763210773468, 0.11817993223667145], [-0.03423183038830757, -0.03424188494682312, 0.09966811537742615]], [[-0.08464505523443222, -0.07318256050348282, 0.024191545322537422], [-0.04605710506439209, 0.10102759301662445, 0.03093797154724598], [0.07690144330263138, -0.08570637553930283, -0.056352656334638596]]], [[[-0.05233078449964523, -0.04810544103384018, 0.09516441076993942], [-0.07184091210365295, -0.05268358439207077, -0.09335028380155563], [0.07773891091346741, -0.02818509377539158, -0.032837141305208206]], [[0.030748305842280388, -0.10392346233129501, -0.0898108184337616], [-0.0031834521796554327, 0.04081331565976143, -0.0852532610297203], [-0.02558067813515663, 0.02652835100889206, 0.04040537402033806]], [[-0.0912417396903038, -0.12675878405570984, -0.12072458863258362], [0.1129763200879097, 0.01970626600086689, -0.13201019167900085], [0.01433053333312273, -0.13428813219070435, -0.074373759329319]], [[0.03255239129066467, 0.0789758563041687, 0.03596685081720352], [-0.04868077486753464, -0.09283611923456192, 0.10518768429756165], [0.06403405219316483, 0.10096710175275803, -0.07228836417198181]], [[-0.032581474632024765, 0.02651749737560749, -0.023413503542542458], [-0.04365818202495575, -0.1354045271873474, -0.03199535608291626], [0.0025228012818843126, 0.052778732031583786, 0.04458867013454437]], [[-0.022059792652726173, -0.08920153975486755, -0.11720263957977295], [-0.0007214363431558013, 0.036586783826351166, -0.04170435294508934], [-0.010285688564181328, -0.03602387383580208, 0.12458233535289764]]], [[[0.042058274149894714, 0.010450989007949829, 0.02943176031112671], [-0.09940952062606812, -0.007697043474763632, -0.03237582743167877], [-0.05095842853188515, -0.05022634193301201, -0.039381224662065506]], [[0.05847576633095741, 0.12791137397289276, -0.07565558701753616], [0.05976603925228119, 0.004665179643779993, -0.10696849226951599], [-0.10060619562864304, 0.01786431297659874, 0.08039282262325287]], [[-0.03845875710248947, -0.11734339594841003, -0.12184511125087738], [0.0414864756166935, 0.010356190614402294, 0.06093532592058182], [-0.010895864106714725, -0.09341538697481155, -0.010096628218889236]], [[-0.11857437342405319, -0.06660319119691849, -0.06880324333906174], [-0.12489178031682968, -0.049786634743213654, -0.10501527041196823], [0.05803205072879791, -0.021828392520546913, 0.045169245451688766]], [[-0.06288503855466843, 0.1152285784482956, -0.09612841159105301], [0.049163464456796646, -0.006505375262349844, -0.11233650147914886], [0.12540139257907867, -0.09760697931051254, 0.0967869907617569]], [[-0.0028839875012636185, -0.07362080365419388, -0.12220573425292969], [0.13302038609981537, 0.035890132188797, 0.12783297896385193], [0.006742833647876978, -0.11491287499666214, 0.06797841936349869]]], [[[0.14707018435001373, 0.3958264887332916, 0.18007171154022217], [0.25592684745788574, 0.30704402923583984, -0.2870248258113861], [0.4807969629764557, 0.13698503375053406, -0.23543314635753632]], [[0.03857012465596199, 0.1467321813106537, 0.07067839801311493], [-0.013195795007050037, 0.022136583924293518, 0.08855009078979492], [0.000622152874711901, -0.10908135026693344, -0.1239740327000618]], [[-0.023602940142154694, -0.05700080096721649, 0.0253177247941494], [0.06651326268911362, -0.05212083086371422, -0.0985536128282547], [-0.009828542359173298, 0.02063034288585186, 0.02365773357450962]], [[-0.06808735430240631, 0.034777525812387466, -0.10685201734304428], [0.10344842821359634, 0.15016372501850128, -0.041593246161937714], [0.05147646740078926, -0.08219835162162781, -0.08652341365814209]], [[0.1177528128027916, 0.2651291489601135, 0.2049081027507782], [0.2787341773509979, -0.011626668274402618, -0.2517503499984741], [0.2850111424922943, -0.048061858862638474, -0.11916601657867432]], [[-0.06231160834431648, -0.13947607576847076, 0.024449946358799934], [-0.043897680938243866, 0.05950618162751198, -0.11450713872909546], [0.11507002264261246, 0.09909879416227341, 0.04712484031915665]]], [[[0.026489872485399246, -0.14423994719982147, -0.012883055955171585], [-0.09308067709207535, -0.13491176068782806, 0.22301599383354187], [-0.17246557772159576, -0.0823540985584259, 0.18630924820899963]], [[-0.1225024089217186, -0.028275780379772186, -0.08188746869564056], [-0.1275756061077118, -0.08523521572351456, -0.12335562705993652], [-0.036282189190387726, 0.02205016277730465, 0.030650146305561066]], [[-0.10031657665967941, -0.06069819629192352, 0.03136417642235756], [0.017534557729959488, 0.10184309631586075, 0.142876535654068], [-0.0614771842956543, 0.03670932725071907, -0.021148554980754852]], [[-0.022766267880797386, -0.09604009985923767, 0.07212237268686295], [-0.031000323593616486, -0.0613311231136322, -0.039681326597929], [-0.11647626757621765, -0.0885833278298378, -0.07979866862297058]], [[0.1197180226445198, -0.13839994370937347, 0.11618459969758987], [-0.160333514213562, 0.0407380685210228, 0.2178671509027481], [-0.019867228344082832, -0.011920150369405746, 0.04043228551745415]], [[0.05896034464240074, -0.12282194197177887, -0.12029869109392166], [-0.03686919063329697, -0.04993892461061478, -0.03131505474448204], [0.0030308652203530073, 0.13693520426750183, 0.06710836291313171]]], [[[-0.03460605442523956, -0.1475403606891632, -0.11376669257879257], [0.0676974207162857, 0.03320019692182541, 0.02322988212108612], [0.13046760857105255, 0.031749092042446136, 0.08835795521736145]], [[0.11637890338897705, 0.08264815807342529, -0.07890363782644272], [0.09892592579126358, 0.017929458990693092, -0.0007988804718479514], [0.05556212738156319, -0.10540428012609482, -0.05264978110790253]], [[-0.10835747420787811, 0.09214745461940765, -0.1217893436551094], [-0.08410485088825226, -0.10391239076852798, 0.03073289431631565], [-0.09709518402814865, -0.06065155938267708, 0.10671275854110718]], [[-0.1323366016149521, 0.12371136248111725, 0.09586448967456818], [0.11623925715684891, 0.12976805865764618, -0.13559558987617493], [-0.02719922922551632, 0.13192914426326752, -0.03430347889661789]], [[-0.12064854800701141, -0.07392558455467224, -0.0179075226187706], [-0.01555372029542923, 0.020527279004454613, -0.042203281074762344], [-0.05813797935843468, 0.15886427462100983, 0.07091595977544785]], [[0.05269653722643852, -0.09123788774013519, -0.023753458634018898], [-0.014614161103963852, -0.09315096586942673, -0.008520369417965412], [-0.0885881558060646, -0.12730596959590912, -0.1345226913690567]]], [[[0.02045450173318386, -0.07810702919960022, -0.09607715159654617], [-0.10067396610975266, 0.051874443888664246, 0.09983187168836594], [0.049250517040491104, -0.046298686414957047, 0.0037329629994928837]], [[-0.057260360568761826, 0.1312217265367508, -0.013529024086892605], [0.03198373317718506, 0.0010777973802760243, 0.025152580812573433], [-0.10032019764184952, 0.11071161180734634, 0.07140035182237625]], [[-0.048559438437223434, -0.015732280910015106, 0.11784238368272781], [0.03701423108577728, 0.12623542547225952, -0.1311700940132141], [-0.11271841078996658, -0.12225611507892609, -0.07622355967760086]], [[0.017530443146824837, 0.10150834918022156, 0.08360771089792252], [-0.12702281773090363, -0.0740722119808197, 0.00881945714354515], [-0.006370027083903551, 0.046668052673339844, -0.07840260118246078]], [[0.011821906082332134, 0.12424040585756302, -0.04638819769024849], [-0.11823668330907822, -0.09589649736881256, -0.12879234552383423], [-0.005522698629647493, -0.0813574492931366, -0.1392994374036789]], [[-0.1369527131319046, 0.07739206403493881, -0.030890777707099915], [-0.13003262877464294, -0.13778413832187653, -0.005900713615119457], [-0.016170060262084007, -0.03617735207080841, -0.028872236609458923]]], [[[0.06910032778978348, 0.03761439025402069, -0.013739623129367828], [-0.08672469109296799, 0.13564084470272064, 0.09273023158311844], [0.06918296217918396, -0.12376869469881058, -0.06602243334054947]], [[-0.056010521948337555, 0.04474489763379097, -0.1112104207277298], [0.019515261054039, -0.11970442533493042, 0.06254564225673676], [0.013829225674271584, -0.07928842306137085, 0.037817101925611496]], [[-0.12309986352920532, 0.12501472234725952, 0.005438078660517931], [-0.04131421446800232, -0.09694639593362808, -0.043460629880428314], [-0.09317050129175186, -0.0642814040184021, -0.06472453474998474]], [[-0.13556240499019623, -0.00953592173755169, -0.030001932755112648], [-0.04703683778643608, -0.1090928241610527, 0.05888017639517784], [0.017075374722480774, -0.10968540608882904, 0.0905238464474678]], [[-0.11006059497594833, -0.0768633633852005, 0.03185751289129257], [-0.04881451651453972, -0.08542641252279282, 0.08945081382989883], [-0.07476595789194107, -0.053486987948417664, -0.08548428863286972]], [[-0.04860670492053032, -0.08618655055761337, -0.10882185399532318], [0.013079090043902397, 0.025372926145792007, 0.09560185670852661], [-0.10071317851543427, -0.06413198262453079, 0.012692182324826717]]], [[[0.4049132466316223, 0.05886038765311241, 0.030488476157188416], [0.34652525186538696, 0.36179307103157043, 0.37183821201324463], [-0.0341181755065918, -0.24325953423976898, 0.047459181398153305]], [[-0.09543987363576889, -0.07566262781620026, 0.012537823058664799], [-0.12072686851024628, 0.09386038035154343, -0.09411841630935669], [0.018058614805340767, 0.05646368861198425, -0.03707398474216461]], [[-0.027038194239139557, -0.07752816379070282, -0.018034130334854126], [-0.19095508754253387, 0.06235456466674805, -0.10956375300884247], [0.019145196303725243, -0.1684626191854477, 0.04223794490098953]], [[0.07910089194774628, 0.01949346624314785, -0.05809294804930687], [0.12037298828363419, -0.09532365947961807, -0.013147966004908085], [0.11351492255926132, -0.12214837223291397, -0.12511040270328522]], [[-0.10541164129972458, -0.15596604347229004, -0.3419454097747803], [0.1839180290699005, 0.048067979514598846, 0.11590097844600677], [0.06762527674436569, 0.24397125840187073, 0.08051946759223938]], [[-0.010566557757556438, -0.026265280321240425, 0.03198389708995819], [-0.06869335472583771, -0.12966856360435486, -0.11734410375356674], [-0.09374333173036575, -0.11535325646400452, -0.014668142423033714]]], [[[0.2399461269378662, 0.035247474908828735, 0.03157791867852211], [0.04520316794514656, -0.059529274702072144, -0.14628873765468597], [-0.05174732580780983, -0.0780610665678978, -0.1250075101852417]], [[-0.012760230340063572, 0.012597852386534214, -0.08287416398525238], [0.08523481339216232, 0.06250426918268204, -0.11642945557832718], [0.07452627271413803, 0.08056146651506424, -0.08571518957614899]], [[0.017633890733122826, -0.03851297125220299, 0.10270094126462936], [-0.022918736562132835, -0.06413733959197998, 0.03214411810040474], [-0.08576826751232147, -0.09788048267364502, -0.0976630300283432]], [[0.1100933849811554, -0.1320701390504837, 0.10612927377223969], [-0.1212533563375473, 0.09855011850595474, 0.0875406488776207], [-0.09003458172082901, 0.03640931844711304, 0.0164454597979784]], [[0.23280875384807587, 0.11136848479509354, -0.09603702276945114], [0.05013667419552803, 0.04253546521067619, -0.13756988942623138], [-0.05785904824733734, -0.05125188082456589, -0.07062124460935593]], [[-0.10496903955936432, -0.08173416554927826, -0.10757073014974594], [0.05472932010889053, 0.14984045922756195, -0.09014035761356354], [0.11976145952939987, -0.09273897856473923, 0.1048039048910141]]], [[[0.016145695000886917, 0.22475747764110565, 0.42604681849479675], [-0.14128148555755615, -0.22343221306800842, -0.010903466492891312], [0.049019064754247665, -0.28208017349243164, -0.3061787784099579]], [[-0.017704883590340614, -0.10530420392751694, 0.08326124399900436], [0.12960292398929596, -0.004264397080987692, -0.03404662758111954], [0.10526358336210251, -0.12381958216428757, -0.07432775944471359]], [[0.0017851702868938446, -0.02933134324848652, -0.07020536065101624], [-0.134591743350029, -0.12373098731040955, 0.02448168955743313], [0.06528186053037643, 0.07566720992326736, -0.04152654483914375]], [[0.13138827681541443, -0.017241431400179863, 0.1288938969373703], [-0.08357463032007217, 0.06622879207134247, -0.08204099535942078], [-0.061559367924928665, -0.01638702303171158, 0.09544120728969574]], [[0.17123936116695404, 0.28831160068511963, 0.1693478375673294], [0.05397053807973862, 0.08455169200897217, 0.33835721015930176], [-0.21407917141914368, -0.2613545358181, -0.14292699098587036]], [[-0.06617147475481033, 0.013859476894140244, 0.09877815842628479], [-0.07264719158411026, 0.006298264022916555, -0.12423291802406311], [-0.06829943507909775, 0.1335916966199875, 0.037657544016838074]]]], "conv2.bias": [-0.022582754492759705, 0.03081486187875271, 0.11337520182132721, -0.014832135289907455, -0.17336851358413696, 0.05660223215818405, -0.08647524565458298, -0.021746300160884857, 0.023009445518255234, 0.04810088500380516, -0.10453211516141891, 0.09045425057411194, -0.08335863053798676, -0.07957348227500916, -0.05217370390892029, 0.19494304060935974], "fc1.weight": [[0.002802035538479686, 0.014937072992324829, 0.04431794583797455, 0.008815359324216843, -0.028174081817269325, -0.02283194288611412, -0.008564639836549759, 0.007929131388664246, 0.04370217025279999, -0.009736749343574047, -0.0221111960709095, 0.028588762506842613, 0.004525032825767994, 0.016320422291755676, -0.001185401575639844, -0.041661396622657776, -0.0018255803734064102, 0.04187124967575073, 0.02492869831621647, 0.03936483711004257, -0.022684592753648758, 0.0445944108068943, -0.009598726406693459, -0.014450417831540108, -0.032783180475234985, 0.00890736561268568, 0.03621887043118477, 0.002575712278485298, 0.03660469129681587, 0.012436065822839737, 0.014443248510360718, 0.0362158864736557, 0.021142801269888878, 0.023886699229478836, -0.032962407916784286, 0.03866787627339363, -0.021917244419455528, -0.002345863962545991, 0.01288359984755516, 0.04182449355721474, -0.005836124531924725, -0.047059331089258194, 0.03415793180465698, 0.043176960200071335, -0.03807256743311882, -0.005026631057262421, -0.021586932241916656, -0.015958605334162712, 5.8335419453214854e-05, -0.021587373688817024, -0.02601088210940361, -0.01891249045729637, -0.04874658212065697, -0.04022366181015968, 0.00843740627169609, 0.037531401962041855, -0.04571640491485596, -0.013193868100643158, -0.02448202110826969, -0.035466935485601425, -0.015479444526135921, -0.02859046868979931, 0.001725999522022903, -0.031180106103420258, -0.029509052634239197, 0.01689809374511242, 0.0032059948425740004, 0.04153404384851456, -0.015366616658866405, -0.042446352541446686, 0.0024814321659505367, 0.044688548892736435, 0.04067659750580788, 0.011511280201375484, 0.0013483503134921193, 0.03424963727593422, -0.04770607873797417, 0.04607114568352699, -0.017078034579753876, 0.011289473623037338, -0.03930337727069855, 0.002227092394605279, -0.037898603826761246, 0.014538085088133812, -0.030238017439842224, 0.005365712568163872, -0.01797572709619999, -0.013565581291913986, 0.023473458364605904, 0.04590727016329765, -0.021229011937975883, -0.03157881274819374, -0.04440196603536606, -0.02370111271739006, -0.02981642633676529, -0.04345635324716568, 0.004890770651400089, -0.03546321392059326, -0.04026238992810249, -0.013637430965900421, 0.015846626833081245, 0.04480327293276787, 0.014604581519961357, 0.029633453115820885, 0.029430098831653595, -0.031007949262857437, -0.016106601804494858, -0.04230957850813866, -0.007058535236865282, 0.030843185260891914, 0.000500717491377145, 0.019671646878123283, -0.03341023623943329, -0.0350666269659996, -0.041065678000450134, -0.03275591507554054, 0.0023985495790839195, 0.009112928993999958, -0.03519362583756447, 0.03420066460967064, 0.03189275041222572, -0.039804816246032715, -0.021620754152536392, -0.029666628688573837, -0.02155548520386219, 0.03791017830371857, -0.008304239250719547, -0.02597726136445999, 0.022108769044280052, -0.018539784476161003, -0.01656155101954937, -0.0055710384622216225, -0.033248767256736755, 0.010531876236200333, 0.0075928526930511, -0.03241974860429764, -0.008102856576442719, -0.01680830493569374, 0.0013566830893978477, 0.028138434514403343, -0.04748031124472618, -0.027664706110954285, -0.024442333728075027, -0.027262426912784576, -0.03003130666911602, -0.0023823492228984833, -0.01345333643257618, 0.037915345281362534, 0.007991833612322807, 0.027319734916090965, 0.003999477718025446, -0.005515594966709614, -0.00975714810192585, -0.009042561985552311, 0.049743641167879105, -0.015270126052200794, -0.02007637917995453, -0.020841654390096664, -0.044021304696798325, -0.009807264432311058, 0.002367184264585376, -0.01441715657711029, 0.027130281552672386, 0.040581244975328445, 0.035956449806690216, 0.010271012783050537, -0.0330631248652935, -0.0003899125731550157, -0.021706614643335342, -0.0077003478072583675, -0.03646884486079216, -0.04904472082853317, 0.017069673165678978, -0.009207344613969326, -0.015560007654130459, -0.03432134911417961, -3.826331521850079e-05, 0.0070787821896374226, 0.03210200369358063, 0.009473037905991077, 0.014498316682875156, -0.005295348819345236, 0.04351188614964485, 0.013371434062719345, -0.02718869037926197, 0.0248862374573946, -0.0061773196794092655, -0.0008772871806286275, -0.009724190458655357, -0.03020624816417694, 0.047937821596860886, 0.032175712287425995, -0.02029108628630638, -0.032486725598573685, 0.03940330818295479, 0.008802073076367378, -0.04548022523522377, -0.019330527633428574, -0.04656370356678963, 0.034065235406160355, -0.030391408130526543, 0.024047106504440308, -0.011809302493929863, -0.0337156318128109, -0.020278509706258774, 0.01194240152835846, -0.007986586540937424, 0.044836513698101044, -0.013352644629776478, -0.023737413808703423, 0.04427538812160492, -0.028397565707564354, -0.026022829115390778, 0.035652562975883484, 0.014145721681416035, 0.008597425185143948, 0.04270487651228905, -0.02043849602341652, 0.015039218589663506, -0.013210585340857506, 0.031786080449819565, -0.0122684882953763, 0.045635152608156204, 0.020503932610154152, -0.02094975672662258, 0.047934312373399734, -0.011350316926836967, 0.0010717534460127354, 0.028366150334477425, 0.04108476638793945, -0.03721699118614197, -0.009421102702617645, -0.005148221738636494, -0.032405316829681396, -0.04909875616431236, 0.042142048478126526, 0.0064897676929831505, -0.04479798302054405, 0.0416116863489151, -0.03292201831936836, 0.04925714060664177, 0.005761391948908567, 0.037052325904369354, 0.011396132409572601, 0.03988700732588768, -0.020590689033269882, -0.04259832203388214, -0.03347260504961014, 0.02695869281888008, -0.020707868039608, -0.02115640975534916, 0.015564904548227787, 0.02944827266037464, -0.030085735023021698, 0.018190696835517883, 0.02863544039428234, 0.03798283264040947, 0.04834315925836563, 0.03889317438006401, 0.025495069101452827, 0.038050297647714615, -0.01955273002386093, 0.010106797330081463, 0.02164579927921295, -0.0064388723112642765, 0.027012763544917107, -0.04517068341374397, -0.01975184679031372, 0.012807806953787804, 0.024112654849886894, 0.028974467888474464, -0.041171420365571976, 0.03781629726290703, 0.031647127121686935, 0.0003034491091966629, 0.03740731254220009, 0.03163233771920204, -0.023770466446876526, 0.030386880040168762, 0.033169910311698914, 0.04357017204165459, -0.018278490751981735, -0.02542239800095558, -0.02022809535264969, 0.03836289420723915, -0.02813611924648285, -0.033492833375930786, 0.023665161803364754, -0.021751707419753075, 0.006305720191448927, -0.022089393809437752, -0.029702110216021538, -0.04205244034528732, -0.01050862018018961, 0.012353918515145779, 0.008770233020186424, 0.019111525267362595, 0.0006302050314843655, 0.006043822504580021, 0.04337422922253609, -0.047970645129680634, 0.04450951889157295, -0.008950559422373772, -0.026909852400422096, -0.014985906891524792, 0.02637949213385582, 0.020542195066809654, -0.014000726863741875, 0.011447722092270851, -0.022675050422549248, 0.03390776738524437, 0.012920253910124302, -0.03505862131714821, -0.015293831005692482, 0.03121742606163025, 0.04570676386356354, 0.045571714639663696, 0.04386701062321663, -0.0014173508388921618, -0.036531396210193634, -0.01603918895125389, -0.0005478892126120627, -0.026562293991446495, -0.02260500192642212, -0.04447220638394356, -0.013559726066887379, 0.008808230981230736, 0.022046828642487526, -0.014452007599174976, -0.03415327146649361, 0.008468668907880783, -0.042021188884973526, 0.04437390714883804, -0.0041220588609576225, -0.04208887740969658, 0.012005789205431938, 0.03637629747390747, -0.0007490424322895706, -0.013135124929249287, 0.020509960129857063, 0.014417202211916447, 0.00505426712334156, 0.04816408455371857, -0.046298086643218994, 0.030862927436828613, -0.04329739138484001, 0.04710489511489868, 0.0038063975516706705, 0.048086777329444885, -0.027786636725068092, -0.021789610385894775, 0.039571963250637054, -0.04297880828380585, 0.021842896938323975, 0.04227335751056671, 0.03067241981625557, 0.0012562264455482364, 0.01580509915947914, 0.04210243374109268, -0.029525240883231163, -0.039348043501377106, -0.01600928045809269, 0.043569453060626984, -0.028157975524663925, -0.004372650291770697, -0.031342897564172745, 0.0497642457485199, -0.006449867971241474, -0.0476132296025753, -0.04077016934752464, -0.041329316794872284, -0.02763807401061058, 0.007420428562909365, 0.024283604696393013, 0.022078827023506165, 0.00608882587403059, 0.0245174802839756, 0.03744928166270256, -0.01209629699587822, -0.029003871604800224, -0.04590049758553505, 0.004769191611558199, -0.019441548734903336, -0.017864996567368507, -0.0009770659962669015, -0.014320983551442623, 0.029948394745588303, 0.04808441549539566, 0.04469496011734009, -0.03255694732069969, -0.033297136425971985, 0.04819989204406738, -0.030369887128472328, 0.016765691339969635, -0.04261116683483124, 0.0018682167865335941, 0.009897984564304352, 0.04808664321899414, -0.002183394506573677, 0.0006166475941427052], [-0.044971924275159836, -0.046568941324949265, -0.05282376706600189, -0.02799537032842636, 0.032322801649570465, -0.005126481410115957, -0.013910436071455479, -0.0030676284804940224, -0.03253621235489845, 0.038400329649448395, 0.025635480880737305, -0.03146908059716225, -0.04446803033351898, -0.04999713599681854, -0.05365421995520592, 0.046531304717063904, 0.010366590693593025, -0.06087915226817131, 0.0038706865161657333, 0.01325293444097042, -0.04152568429708481, 0.016798105090856552, -0.046394821256399155, -0.053548429161310196, -0.0005826143897138536, 0.06286375969648361, -0.006351368967443705, -0.05341773480176926, -0.011265121400356293, 0.01026266161352396, 0.0439549945294857, -0.017871199175715446, -0.017366863787174225, -0.020677683874964714, 0.06020288169384003, 0.018684731796383858, 0.03831379488110542, 0.034294504672288895, -0.0015667325351387262, 0.03739441931247711, -0.033197686076164246, 0.013950387015938759, -0.09148971736431122, -0.012089823372662067, 0.03073689714074135, -0.0022253640927374363, 0.025167305022478104, 0.052097663283348083, 0.03514860197901726, -0.013226554729044437, 0.0635700672864914, 0.00874424260109663, -0.04374975711107254, -0.03955208137631416, 0.0021859488915652037, -0.01089454349130392, -0.010952099226415157, -0.0131381219252944, 0.01953486166894436, 0.02655811794102192, -0.04768627882003784, -0.00042974986718036234, 0.0343572273850441, 0.015619678422808647, -0.006012734491378069, 0.02769843116402626, 0.02642667107284069, 0.007459602784365416, -0.01644325442612171, 0.03753393515944481, 0.024166466668248177, 0.027819441631436348, 0.0789010226726532, 0.061354298144578934, 0.0019238301320001483, -0.017469577491283417, -0.009308435954153538, 0.048522502183914185, 0.06571170687675476, -0.03043627180159092, -0.012908058241009712, -0.077346071600914, -0.031470172107219696, -0.017125489190220833, 0.05744585394859314, 0.021063243970274925, 0.056708138436079025, 0.07362878322601318, 0.024090994149446487, 0.057216543704271317, 0.04875025525689125, 0.10689039528369904, 0.011171935126185417, -0.0733218863606453, -0.039595842361450195, 0.02181883528828621, 0.036025941371917725, 0.0372430644929409, -0.03332221880555153, 0.02149614877998829, -0.02847556211054325, -0.01309012807905674, -0.014569323509931564, -0.025558242574334145, -0.02267500013113022, 0.054975178092718124, 0.03075147606432438, 0.03566113859415054, 0.043819624930620193, 0.029359478503465652, -0.020347433164715767, -0.0516042560338974, 0.027849990874528885, -0.038430482149124146, 0.05827586352825165, -0.010701273567974567, -0.03577933460474014, -0.06602934747934341, -0.03521966561675072, -0.03060234896838665, -0.0033972051460295916, -0.030928868800401688, 0.013476088643074036, 0.052834805101156235, 0.028495531529188156, -0.004098639823496342, 0.0064696199260652065, -0.009626700542867184, -0.029108259826898575, -0.033820509910583496, 0.028862569481134415, 0.0044528343714773655, 0.046172577887773514, -0.004747158847749233, 0.012408454902470112, 0.028452763333916664, -0.04129622131586075, 0.01981448382139206, 0.02286880649626255, 0.011507040821015835, 0.012986752204596996, -0.00017641964950598776, 0.01794563978910446, -0.003682588692754507, -0.005703662056475878, 0.0033063655719161034, -0.012244255281984806, -0.03892728313803673, -0.012187679298222065, 0.03193221986293793, -0.038534678518772125, -0.01238510012626648, -0.03219248354434967, -0.01881963200867176, -0.006560248322784901, -0.01257750391960144, -0.023713616654276848, 0.03235562890768051, 0.004391406197100878, 0.007708193734288216, -0.012104732915759087, -0.045524317771196365, -0.011783350259065628, 0.005931159481406212, -0.04947157949209213, 0.0006354366196319461, 0.024687837809324265, 0.009038804098963737, -0.02613903395831585, -0.04919976741075516, 0.026307890191674232, -0.03862692788243294, 0.04639294371008873, 0.022362923249602318, 0.002104806248098612, 0.005777871236205101, -0.01467154361307621, 0.030816663056612015, -0.014426715672016144, 0.009585538879036903, 0.01279916986823082, -0.025104761123657227, -0.014053131453692913, -0.04458391293883324, 0.031560081988573074, 0.015787776559591293, 0.004787962883710861, 0.021961374208331108, -0.0025475649163126945, -0.005689800251275301, -0.006688802968710661, -0.022420968860387802, 0.038421180099248886, 0.026210268959403038, 0.009637264534831047, -0.0411597415804863, -0.03387688472867012, -0.010003821924328804, -0.020246542990207672, -0.006093649659305811, 0.03604734688997269, 0.007694424595683813, -0.07206342369318008, 0.047624483704566956, -0.03879358991980553, 0.005783126689493656, 0.05389489233493805, 0.005515731405466795, 0.03869190439581871, 0.04779767245054245, 0.030674051493406296, -0.04449465125799179, 0.01921963132917881, 0.04658297449350357, 0.04054270684719086, 0.018909763544797897, -0.03099662810564041, -0.04270588979125023, -0.10368792712688446, 0.06526461243629456, -0.014525451697409153, 0.021148204803466797, 0.03245120123028755, 0.04319971799850464, 0.035162992775440216, -0.024805568158626556, -0.035351596772670746, -0.062029607594013214, -0.04743516445159912, -0.02847495675086975, -0.031097281724214554, -0.004864100832492113, -0.029659397900104523, -0.06044221296906471, 0.02424486353993416, -0.04244070500135422, 0.017823945730924606, -0.01661818102002144, -0.05723007395863533, -0.021407753229141235, 0.003296606009826064, -0.03079339489340782, -0.06998354941606522, -0.05577602609992027, 0.018328366801142693, 0.022298015654087067, -0.039922960102558136, -0.030377184972167015, 0.0186003465205431, 0.021620063111186028, 0.0133583415299654, 0.03414328396320343, -0.0007020542398095131, -0.023742234334349632, -0.012195732444524765, -0.00017618433048482984, -0.05163005366921425, -0.011923533864319324, 0.018609950318932533, -0.0320868194103241, -0.008322865702211857, 0.008142026141285896, 0.039122339338064194, -0.030756980180740356, -0.02026902325451374, 0.021181710064411163, 0.012795578688383102, 0.03275635093450546, -0.02872258611023426, 0.02231009490787983, -0.036001693457365036, 0.017619384452700615, -0.0320199690759182, 0.033502139151096344, -0.013467226177453995, 0.04289064556360245, 0.016424518078565598, -0.033920787274837494, 0.04933809116482735, -0.04421164467930794, -0.026270760223269463, -0.048629358410835266, 0.024298006668686867, 0.03898323327302933, -0.05103326588869095, 0.01061336975544691, -0.008727430365979671, -0.001403589267283678, 0.036849524825811386, 0.03495684638619423, -0.0381644144654274, -0.003195860655978322, 0.010379176586866379, -0.009102797135710716, -0.03712711110711098, -0.010363929904997349, 0.012724310159683228, 0.0434570387005806, 0.02211032435297966, 0.01391533948481083, 0.019456444308161736, -0.04545044153928757, -0.009428169578313828, -0.04444235935807228, -0.0015158551977947354, 0.04302293807268143, -0.04953360557556152, -0.03901326656341553, -0.0017773113213479519, 0.00539772305637598, 0.038158245384693146, 0.011631052941083908, -0.006886471528559923, -0.0073071313090622425, -0.0048866975121200085, 0.010037031024694443, 0.003660520538687706, -0.0007860929472371936, 0.04883410036563873, -0.03858087956905365, 0.014667320065200329, -0.002342653926461935, 0.03985099121928215, -0.03888721764087677, -0.023977218195796013, 0.010072373785078526, 0.039886992424726486, 0.0005161162698641419, 0.026346355676651, 0.01240610983222723, 0.047836631536483765, -0.04565037041902542, -0.024756833910942078, -0.038388144224882126, 0.0679367184638977, -0.002632412826642394, -0.008132586255669594, 0.051223840564489365, -0.0370231494307518, 0.025282353162765503, 0.05388740077614784, 0.06648994237184525, -0.0027886165771633387, -0.026959747076034546, 0.015646377578377724, -0.032272279262542725, 0.06595470011234283, 0.0006687376881018281, -0.02084144577383995, 0.027309773489832878, -0.02716750092804432, -0.03058377280831337, 0.04345811530947685, -0.012580988928675652, -0.003183503169566393, -0.0026748988311737776, -0.01917412132024765, 0.033638257533311844, -0.040472060441970825, -0.01686045341193676, -0.005970195401459932, -0.05385817587375641, -0.029365764930844307, 0.04960418865084648, 0.01515667513012886, -0.015267321839928627, 0.006152043119072914, -0.004250830039381981, -0.027223456650972366, -0.004337235353887081, 0.03519902378320694, -0.05686524137854576, -0.020667560398578644, 0.036369387060403824, -0.010289487428963184, -0.04913918673992157, -0.01624933071434498, 0.002576234517619014, 0.04402479529380798, -0.03539923578500748, -0.0053830756805837154, 0.03267224133014679, 0.0037960114423185587, 0.020311744883656502, -0.03649861365556717, -0.028563762083649635, 0.00314470031298697, 0.031614165753126144, 0.026415828615427017, 0.04476596787571907, 0.014643637463450432, -0.017778106033802032, -0.020349839702248573, -0.02009805105626583, -0.023021815344691277, -0.03039206750690937, 0.05713970214128494, 0.018223874270915985, 0.018849194049835205, 0.010856724344193935], [-0.03156902641057968, 0.005035478621721268, -0.020479578524827957, -0.016401253640651703, -0.00672499556094408, 0.04031534865498543, 0.08204938471317291, 0.06449798494577408, 0.03577405586838722, -0.053689368069171906, 0.010503008030354977, 0.0430418998003006, 0.02146122232079506, 0.008747019805014133, 0.0032568362075835466, 0.0391308031976223, -0.023668602108955383, -0.005955273751169443, 0.013042468577623367, 0.035540565848350525, 0.013098148629069328, -0.056264881044626236, -0.058653395622968674, -0.01814620941877365, -0.01453037653118372, -0.05006207898259163, 0.019622931256890297, 0.030071483924984932, -0.004200010094791651, 0.0845269039273262, -0.04271524026989937, 0.038427457213401794, 0.015954159200191498, -0.014847725629806519, 0.0020560098346322775, -0.0015271184965968132, 0.004437407478690147, -0.06163816154003143, -0.06810294836759567, -0.011427858844399452, 0.04577726870775223, 0.02810094505548477, -0.026219381019473076, 0.02495226077735424, 0.04581770673394203, -0.036055225878953934, -0.03246846795082092, 0.053680550307035446, -0.01864992454648018, -0.022447191178798676, -0.06978115439414978, -0.06570405513048172, -0.052232787013053894, -0.0022581294178962708, 0.08780419826507568, -0.05223269388079643, -0.05380436033010483, -0.020301057025790215, 0.006247579585760832, 0.035037893801927567, 0.0049303756095469, 0.048706699162721634, 0.08304807543754578, 0.05355003476142883, 0.0168450977653265, 0.08612564206123352, 0.002095237374305725, 0.1055871844291687, 0.02461395040154457, 0.07527942210435867, -0.040249329060316086, 0.07178020477294922, 0.06933898478746414, 0.042582180351018906, -0.048163313418626785, -0.009058508090674877, 0.09609644114971161, 0.024279670789837837, -0.050329841673374176, -0.0035151124466210604, 0.0024043922312557697, 0.11025331169366837, -0.00742636201903224, -0.08823206275701523, -0.03355307877063751, -0.04203967750072479, 0.12059546262025833, 0.09429651498794556, 0.06504740566015244, 0.0009598197066225111, 0.0870305746793747, 0.0638924092054367, 0.0033938426058739424, 0.011495108716189861, 0.04654340445995331, 0.06982116401195526, 0.06208474934101105, -0.031148476526141167, -0.04844421148300171, -0.01321102399379015, -0.047038424760103226, -0.028647754341363907, -0.025170892477035522, 0.0034622251987457275, 0.06008594110608101, -0.015236767008900642, 0.02549067512154579, 0.013969098217785358, -0.051497071981430054, -0.047415610402822495, 0.026488788425922394, -0.01478293165564537, -0.049048542976379395, -0.067501962184906, -0.10071588307619095, 0.004748800303786993, 0.026465611532330513, -0.054463181644678116, 0.03845265880227089, -0.031372517347335815, -0.017949577420949936, 0.020280078053474426, -0.008004029281437397, 1.6345591575372964e-05, 0.012044484727084637, 0.014058203436434269, 0.0205081757158041, -0.04226125031709671, 0.021716512739658356, 0.027099618688225746, 0.023310258984565735, 0.03258601203560829, 0.01301448605954647, 0.02082970179617405, -0.007706749718636274, 0.027393264696002007, -0.004350845701992512, 0.009302961640059948, -0.012182855047285557, -0.04600644111633301, -0.019713813439011574, 0.006725619081407785, -0.04165825620293617, -0.03943004831671715, 0.02841689996421337, 0.019594432786107063, -0.008878884837031364, -0.03967313468456268, -0.01202389970421791, -0.0007094336906448007, -0.008596403524279594, -0.009230511263012886, -0.03918895497918129, 0.014424831606447697, 0.013580426573753357, -0.008776663802564144, 0.04670754447579384, 0.007608270738273859, 0.03871181607246399, 0.007558078039437532, -0.037420619279146194, -0.006120186764746904, -0.038749657571315765, -0.02565857581794262, 0.04627032205462456, -0.008044942282140255, 0.04695102199912071, 0.03534585237503052, -0.04746940732002258, -0.04031047224998474, -0.026423677802085876, 0.0343266986310482, 0.0010381325846537948, -0.0058097392320632935, -0.016236020252108574, -0.022796781733632088, 0.03034285083413124, 0.024928495287895203, 0.04885081946849823, -0.019113561138510704, -0.03321097418665886, -0.002701037097722292, 0.02481093257665634, -0.01475262176245451, 0.04430437833070755, -0.020556870847940445, -0.03913237154483795, 0.04674330726265907, -0.043866343796253204, -2.565546856203582e-05, -0.009718406945466995, 0.02268143929541111, 0.04679665341973305, -0.01498869527131319, -0.027325551956892014, -0.011838562786579132, -0.046687062829732895, 0.05152425542473793, 0.002618534257635474, -0.0357949361205101, 0.011439160443842411, -0.015560181811451912, 0.07622269541025162, 0.032560259103775024, -0.002099453005939722, 0.026826731860637665, -0.01984400860965252, 0.07627484947443008, -0.08519982546567917, -0.025931190699338913, -0.007807831279933453, -0.016245050355792046, 0.057489823549985886, -0.14897683262825012, -0.11799107491970062, 0.03240295872092247, -0.009633016772568226, -0.014174433425068855, -0.10576841235160828, 0.020974311977624893, -0.013061505742371082, -0.07420732825994492, -0.01838311180472374, 0.058753084391355515, 0.009043711237609386, -0.03388394042849541, -0.02558397874236107, -0.030628278851509094, 0.017821207642555237, -0.02201192080974579, 0.0075088925659656525, 0.009879248216748238, 0.056204259395599365, 0.02250535413622856, 0.02080775797367096, 0.023070575669407845, 0.06191054731607437, -0.04640527814626694, -0.0018414461519569159, -0.017986498773097992, -0.05501660704612732, 0.010299010202288628, -0.022173134610056877, 0.0256905946880579, -0.03319549188017845, 0.01194843091070652, -0.05401485785841942, -0.01701309159398079, 0.041512444615364075, 0.050765037536621094, 0.027961544692516327, -0.014959538355469704, -0.012279186397790909, 0.022466056048870087, -0.04673168808221817, 0.02018027752637863, 0.02242780290544033, 0.0089906370267272, 0.045480504631996155, 0.05033667013049126, -0.022127468138933182, -0.01273949071764946, 0.0023934543132781982, -0.02719965949654579, -0.03812596574425697, 0.05354374647140503, 0.03033147193491459, 0.04553884640336037, -0.02446049451828003, -0.040332596749067307, -0.022341681644320488, 0.03109472058713436, 0.04823062941431999, 0.029003547504544258, 0.0449124351143837, -0.02355307899415493, 0.00949002429842949, -0.03885432332754135, -0.030117392539978027, 0.040934208780527115, -0.011492590419948101, 0.04823138564825058, -0.012408535927534103, 0.02039010263979435, 0.024785200133919716, 0.02894088253378868, -0.023233192041516304, -0.027577590197324753, 0.04633426293730736, 0.03954722732305527, -0.03901750221848488, -0.018137779086828232, 0.04059154540300369, 0.020355544984340668, 0.045722246170043945, -0.007323578931391239, 0.0264538936316967, 0.018866682425141335, -0.0040027666836977005, 0.019501734524965286, 0.021903809159994125, 0.01160329207777977, 0.02372550778090954, -0.03905106335878372, 0.019718632102012634, -0.047500841319561005, -0.04918947443366051, -0.008414028212428093, 0.004473732318729162, 0.031985219568014145, -0.011876045726239681, -0.04922415688633919, -0.000664743420202285, -0.022316444665193558, 0.042951907962560654, -0.03383384644985199, -0.021998466923832893, -0.046033795922994614, 0.04531106352806091, 0.0170445516705513, 0.048552945256233215, 0.02904484234750271, 0.035331130027770996, 0.025636127218604088, -0.012378537096083164, -0.052236542105674744, 0.032295092940330505, -0.011554349213838577, -0.0013385708443820477, 0.054685428738594055, 0.00018913658277597278, -0.0003157596802338958, 0.04248908907175064, -0.024233410134911537, -0.008259592577815056, -0.008785547688603401, -0.01691804639995098, 0.12415938079357147, 0.03478521481156349, -0.028537558391690254, 0.07834871113300323, 0.013978787697851658, 0.0604780837893486, 0.04987258464097977, 0.043070342391729355, 0.007130380254238844, 0.06009387969970703, 0.04459703713655472, 0.0039754691533744335, -0.02888154797255993, -0.029644636437296867, 0.0053273397497832775, 0.013126627542078495, 0.012449415400624275, 0.06137608736753464, 0.034112416207790375, 0.037494294345378876, 0.018088912591338158, -0.030863769352436066, 0.01273964811116457, -0.01915096491575241, 0.03873840719461441, 0.028343316167593002, -0.0435207337141037, -0.029120178893208504, -0.005963894538581371, 0.04667250066995621, -0.042169272899627686, -0.038701821118593216, 0.011598212644457817, -0.05063097923994064, -0.004550499375909567, 0.01330452412366867, -0.020369326695799828, 0.02086770161986351, -0.0686374232172966, 0.002955723786726594, 0.03581922501325607, -0.023518674075603485, 0.023591570556163788, -0.048445217311382294, 0.02380511723458767, 0.05954987555742264, 0.08057494461536407, 0.03178119659423828, 0.008226990699768066, 0.05601644515991211, 0.0331965796649456, 0.10625768452882767, 0.053633566945791245, -0.015263182111084461, 0.0647885650396347, 0.005968792364001274, 0.0009300935198552907, -0.008674935437738895, 0.06846301257610321, 0.05481218546628952, -0.03952111303806305, -0.024172361940145493, -0.027920296415686607], [0.03153806924819946, -0.03983348235487938, 0.01435889583081007, -0.02346627786755562, 0.008374333381652832, 0.027876688167452812, -0.010760498233139515, 0.03560605272650719, -0.0425134114921093, -0.016286885365843773, 0.013780099339783192, 0.01010079961270094, -0.005978697445243597, -0.0027666629757732153, 0.029843760654330254, 0.020064502954483032, 0.032061684876680374, -0.009261364117264748, 0.029328603297472, -0.033262062817811966, 0.031971972435712814, -0.04687808081507683, 0.01709241233766079, -0.031150538474321365, 0.020444339141249657, -0.018641168251633644, 0.028873616829514503, -0.029646938666701317, 0.003678601933643222, -0.010936337523162365, -0.021212417632341385, 0.012859410606324673, -0.017196936532855034, -0.012694752775132656, 0.027599602937698364, -0.040820278227329254, -0.045355457812547684, 0.04808126017451286, -0.029472684487700462, 0.019701320677995682, -0.026579225435853004, 0.009385026060044765, 0.03898938372731209, -0.03786325454711914, 0.004837030079215765, 0.025926465168595314, -0.012943536043167114, -0.03806361183524132, -0.03434441238641739, 0.046752769500017166, 0.01007844228297472, 0.01023361086845398, 0.04368137940764427, 0.024115104228258133, 0.022086286917328835, 0.01918371394276619, -0.047331929206848145, 0.0070039452984929085, -0.021397406235337257, 0.02353704534471035, -0.03160989284515381, -0.0227349940687418, 0.04509219527244568, 0.0371856652200222, 0.02089952863752842, 0.008406293578445911, 0.006747466512024403, -0.040199436247348785, 0.0035950541496276855, 0.03834880143404007, -0.0260983407497406, 0.006445735692977905, -0.008516472764313221, -0.03710481524467468, -0.022853469476103783, 0.0038341700565069914, -0.03577851131558418, -0.01686929538846016, -0.03792257979512215, -0.0021425604354590178, 0.01440533995628357, -0.029149210080504417, -0.042848020792007446, -0.028794264420866966, -0.04395902901887894, -0.01813826523721218, 0.03873257711529732, -0.039624929428100586, 0.02169400453567505, -0.021570462733507156, -0.049457937479019165, -0.038510214537382126, -0.019094878807663918, -0.04874792322516441, -0.01872429810464382, -0.028861522674560547, -0.010518348775804043, 0.03204026818275452, -0.010889196768403053, -0.04928997904062271, -0.009478730149567127, -0.03864026069641113, 0.00916979368776083, -0.03814628720283508, -0.008821762166917324, 0.046715524047613144, -0.019970137625932693, 0.02489646151661873, -0.01845753751695156, -0.00390659598633647, 0.01595507375895977, 0.04215431958436966, -0.03804028779268265, -0.03772322088479996, 0.00720028905197978, -0.01521443109959364, -0.004444152116775513, -0.013510233722627163, 0.0073448303155601025, 0.00741622457280755, 0.047496285289525986, -0.02460719458758831, 0.03312766179442406, -0.0016072094440460205, -0.02080589532852173, -0.037061482667922974, 0.04669664427638054, 0.02403898909687996, 0.029937744140625, -0.011869949288666248, -0.036352287977933884, -0.024008726701140404, -0.04850411042571068, 0.00591240543872118, -0.038192011415958405, 0.010851586237549782, 0.002425712300464511, -0.007612842600792646, -0.010797649621963501, -0.04470066353678703, -0.014173555187880993, -0.04023131728172302, -0.04893882945179939, -0.03375428915023804, 0.019257938489317894, 0.028511255979537964, 0.0044602216221392155, 0.0032820403575897217, -0.04743051528930664, -0.03297567367553711, 0.02458779886364937, -0.019109874963760376, 0.029621243476867676, -0.036961860954761505, -0.03954339772462845, 0.0197924617677927, 0.026555543765425682, -0.013234997168183327, 0.02845977619290352, 0.01888873614370823, -0.04793053865432739, -0.032731205224990845, 0.04477018862962723, 0.00483890762552619, 0.005111813545227051, -0.036169666796922684, -0.042221345007419586, -0.034049179404973984, 0.04616421088576317, -0.026037467643618584, -0.029713589698076248, 0.018319254741072655, 0.014578181318938732, 0.019221419468522072, -0.043652839958667755, -0.032266583293676376, -0.01009874977171421, 0.04477698728442192, -0.04325173422694206, 0.009562141261994839, -0.041476041078567505, 0.00704270601272583, -0.044316716492176056, -0.002883052919059992, 0.0015482306480407715, 0.00035187602043151855, 0.012438488192856312, -0.03400964289903641, 0.027687979862093925, -0.03203290328383446, 0.006517279427498579, 0.041921861469745636, 0.03805924579501152, -0.03931969031691551, 0.01465259213000536, 0.0028279602993279696, -0.020085185766220093, 0.019207114353775978, -0.011843341402709484, -0.0024697543121874332, -0.0271014217287302, 0.016597503796219826, -0.04528230428695679, 0.01791510544717312, -0.03865734487771988, -0.029275059700012207, -0.026669049635529518, -0.04045286402106285, -0.004241359420120716, -0.011936957016587257, -0.003958565182983875, -0.04609667882323265, -0.02571811154484749, -0.029053037986159325, 0.023889964446425438, 0.049429889768362045, 0.017016852274537086, 0.03650343418121338, 0.04423940181732178, 0.015796929597854614, 0.015934079885482788, -0.04840632900595665, -0.016481924802064896, -0.035810716450214386, -0.04230303317308426, -0.006418281700462103, -0.03805584833025932, 0.034060683101415634, -0.04141807556152344, 0.03073865734040737, -0.01719537377357483, -0.02546178735792637, -0.008564573712646961, -0.0430326834321022, -0.016195708885788918, -0.017098665237426758, 0.0001513361930847168, -0.011702680960297585, -0.0106388870626688, 0.02257927693426609, 0.01992175541818142, 0.0454009585082531, -0.005630665924400091, -0.005599409341812134, 0.017089856788516045, 0.04384235292673111, -0.03702748566865921, -0.015599059872329235, -0.009257680736482143, -0.03271913155913353, 0.01139458455145359, -0.040336400270462036, 0.03428071364760399, -0.033903416246175766, 0.017786884680390358, 0.02571140043437481, -0.04475976899266243, -0.045174699276685715, -0.004318827297538519, 0.03156482055783272, 0.028591984882950783, 0.02791469730436802, 0.04470084235072136, -0.0015034795505926013, -0.020872807130217552, -0.01060265302658081, -0.024731403216719627, -0.017207926139235497, -0.04598360136151314, -0.020155353471636772, 0.0178347360342741, -0.043313831090927124, 0.04868726804852486, 0.01766340248286724, -0.006099063437432051, -0.015920860692858696, -0.017318958416581154, -0.026183873414993286, 0.03349781036376953, -0.02695310115814209, 0.0333058200776577, 0.03594350442290306, -0.005629438441246748, -0.00029011370497755706, -0.035968612879514694, 0.0338236503303051, -0.04034143686294556, -0.03650975227355957, -0.009172189049422741, 0.02720513939857483, -0.04863002896308899, -0.04718334227800369, -0.010026931762695312, -0.0038650750648230314, -0.04289407655596733, -0.03988414630293846, -0.049030106514692307, -0.03620901703834534, 0.04512913152575493, -0.0025340558495372534, -0.04908460006117821, -0.008148813620209694, -0.011957401409745216, -0.04737197980284691, 0.04889170080423355, -0.02033284306526184, -0.035560525953769684, -0.021534008905291557, 0.013627725653350353, 0.036370664834976196, -0.027981234714388847, -0.012588918209075928, 0.043608974665403366, 0.03979816660284996, -0.00026426315889693797, 0.02336868643760681, 0.03152088075876236, 0.03267304226756096, -0.030887573957443237, -0.026532156392931938, -0.00619812635704875, -0.038653191179037094, -0.0399809293448925, -0.01409642118960619, 0.03369620069861412, -0.032571859657764435, -0.016870243474841118, -0.045635443180799484, -0.00844047125428915, -0.023264897987246513, -0.04336722567677498, -0.0006884813192300498, 0.03621307760477066, 0.030744319781661034, -0.02234153263270855, -0.011669069528579712, 0.0037504376377910376, 0.01442137360572815, -0.04089505225419998, -0.028777552768588066, 0.03423061594367027, 0.03235629200935364, 0.048228807747364044, -0.03548068925738335, 0.03724464774131775, -0.010533166117966175, 0.02493661642074585, -0.04113693907856941, -0.025936920195817947, -0.04187943413853645, -0.049459971487522125, 0.0323052816092968, -0.0314907506108284, -0.013831949792802334, -0.025803519412875175, -0.005994868464767933, 0.017264408990740776, 0.033098604530096054, 0.032714664936065674, -0.045564401894807816, -0.018156487494707108, 0.03625267371535301, -0.024366503581404686, -0.019542111083865166, -0.0012291253078728914, 0.04493041709065437, 0.025638645514845848, 0.044826287776231766, -0.03805018216371536, -0.006798005197197199, 0.021634072065353394, 0.03816269710659981, -0.0011119901901111007, 0.032806914299726486, 0.03189096972346306, -0.04402659460902214, -0.045208342373371124, 0.036410629749298096, 0.04261353239417076, -0.03603900223970413, 0.02229381911456585, 0.013095754198729992, 0.015385699458420277, -0.012155783362686634, -0.030192214995622635, 0.01331302523612976, -0.014210236258804798, -0.01584448292851448, -0.02672499418258667, 0.040491875261068344, -0.0004391789552755654, 0.03395063802599907, 0.02471194975078106, -0.002871400211006403, 0.04922569915652275, 0.004320580046623945, 0.03623960539698601, 0.02572028711438179, 0.03537935018539429, -0.018313318490982056], [0.007186227943748236, 0.048429571092128754, -0.02258463390171528, -0.06565620750188828, -0.025098586454987526, -0.04704611003398895, -0.00908734742552042, -0.03648919239640236, -0.05693614482879639, -0.050732389092445374, 0.03975735232234001, -0.029354633763432503, 0.012375958263874054, -0.019874611869454384, -0.006674488075077534, -0.04181335121393204, -0.008393303491175175, -0.009356478229165077, 0.02972431108355522, -0.0017586512258276343, 0.018306897953152657, 0.03136063367128372, 0.024780694395303726, 0.01798517443239689, 0.02371988631784916, 0.06424393504858017, -0.024355480447411537, -0.055855683982372284, 0.04095255210995674, -0.011548927053809166, 0.057085778564214706, 0.042758405208587646, -0.05543835833668709, 0.04375092685222626, 0.0628410279750824, 0.022723553702235222, 0.06994109600782394, 0.010050695389509201, -0.019744429737329483, 0.025541771203279495, -0.04054264724254608, 0.04760778695344925, -0.059902701526880264, -0.01325151789933443, -0.032395705580711365, 0.02222266234457493, 0.017414763569831848, 0.03597048297524452, 0.022818149998784065, -0.008368677459657192, 0.02128938026726246, 0.016227765008807182, -0.03904392942786217, 0.002748676110059023, 0.029640568420290947, 0.026387901976704597, 0.014247436076402664, 0.032774314284324646, 0.0017340388149023056, -0.024670373648405075, 0.021619845181703568, 0.06924047321081161, 0.008756213821470737, -0.003652105573564768, 0.011754835955798626, -0.011828462593257427, -0.020337650552392006, -0.025290997698903084, -0.043505508452653885, 0.028382958844304085, -0.053072478622198105, 0.042531177401542664, 0.02790938876569271, 0.05335849151015282, 0.018040446564555168, 0.011285851709544659, -0.034960582852363586, -0.007697810884565115, -0.0003540667239576578, 0.013395157642662525, 0.04044123366475105, -0.008301889523863792, -0.03130326792597771, -0.018525585532188416, -0.008522966876626015, 0.11414629220962524, 0.024804137647151947, -0.08497465401887894, 0.01596420630812645, 0.017756354063749313, -0.009505008347332478, 0.10910424590110779, 0.046633943915367126, -0.004634329583495855, 0.024115800857543945, -0.042108017951250076, -0.06819034367799759, 0.01653745211660862, -0.05647820606827736, 0.028571324422955513, 0.048616427928209305, 0.042535100132226944, 0.0061815157532691956, -0.008031249977648258, -0.023419490084052086, 0.042177800089120865, -0.01182921789586544, -0.07878059148788452, 0.03489035367965698, 0.027384767308831215, 0.0295574851334095, 0.03426607698202133, 0.012860223650932312, -0.048381417989730835, 0.020326931029558182, -0.06568402796983719, -0.01810569316148758, 0.0037975346203893423, 0.031987305730581284, 0.05986885353922844, -0.023335158824920654, 0.04122057557106018, -0.004838450346142054, 0.0070121618919074535, 0.04130661487579346, 0.04377099499106407, -0.010177425108850002, 0.018621204420924187, 0.023793986067175865, -0.03821738809347153, -0.0033925252500921488, 0.010924427770078182, -0.033598244190216064, 0.04624119773507118, -0.00862040277570486, 0.04283933341503143, -0.03764414042234421, 0.013583757914602757, 0.006529049947857857, 0.02192142978310585, -0.037599239498376846, 0.006743045058101416, -0.022787168622016907, 0.04559992253780365, 0.007088780403137207, 0.00513559952378273, -0.019104594364762306, -0.048082899302244186, 0.04347654804587364, 0.0046205404214560986, -0.049847282469272614, -0.03597194701433182, 0.0202193520963192, 0.043172117322683334, -0.04267076775431633, -0.03403818979859352, -0.047417547553777695, 0.026096686720848083, 0.0202775988727808, 0.009064051322638988, -0.04223863035440445, 0.04087822139263153, 0.02481604740023613, 0.023415671661496162, -0.013932734727859497, 0.031733524054288864, -0.02469945326447487, -0.028384778648614883, 0.047913335263729095, -0.019750557839870453, -0.047233302146196365, -0.04795984923839569, 0.028648968786001205, 0.018506212159991264, 0.04070724919438362, -0.011300083249807358, -0.02458314225077629, -0.007109217345714569, 0.014059987850487232, -0.03225988522171974, -0.049001485109329224, 0.007967342622578144, 0.03292988985776901, -0.004005772992968559, -0.04421790689229965, -0.02241179160773754, -0.03129958361387253, -0.023610681295394897, -0.03614437207579613, -0.003614309709519148, 0.029900429770350456, 0.029489561915397644, 0.02456599287688732, 0.010977214202284813, 0.005165722221136093, 0.001832137000747025, 0.02865668386220932, -0.015439622104167938, -0.042758870869874954, 0.04636634886264801, 0.000986663275398314, 0.07670605927705765, -0.0013097065966576338, 0.02447466179728508, -0.018920915201306343, 0.011199240572750568, 0.09485037624835968, -0.030041908845305443, -0.05745654180645943, -0.04387990012764931, 0.009715961292386055, 0.04783489555120468, -0.030452299863100052, -0.02900725230574608, 0.01925964280962944, -0.05558285862207413, -0.027427570894360542, -0.03130489960312843, -0.02661116234958172, -0.014466900378465652, -0.0330033153295517, -0.02415631338953972, 0.012286695651710033, -0.01626858487725258, 0.07246877253055573, 0.04861295223236084, 0.02649865485727787, -0.019002661108970642, 0.0019436697475612164, -0.009023214690387249, -0.01916908100247383, -0.014751129783689976, -0.017031416296958923, -0.010654202662408352, -0.029667995870113373, 0.021831344813108444, 0.017630165442824364, 0.014150946401059628, 0.032247256487607956, -0.03679037094116211, 0.04607512056827545, 0.020778371021151543, -0.03308025375008583, -0.03623264655470848, -0.022639848291873932, 0.012871033512055874, 0.010906918905675411, -0.05362148582935333, 0.021288316696882248, -0.0021875931415706873, -0.046935051679611206, -0.006465189624577761, 0.010904581286013126, -0.03833422064781189, -0.02488558739423752, 0.021358851343393326, -0.023604603484272957, -0.011746842414140701, -0.03080841898918152, -0.015740923583507538, -0.01599089987576008, 0.035168834030628204, -0.010022919625043869, -0.022366676479578018, 0.032920703291893005, -0.0412883497774601, 0.03791694715619087, 0.0035125967115163803, 0.04685552418231964, -0.02766023389995098, 0.0010590190067887306, 0.03968265652656555, 0.024880852550268173, 0.04321131110191345, 0.00991901196539402, -0.03233661875128746, -0.02107023261487484, -0.040884483605623245, -0.012412122450768948, -0.04481544718146324, 0.013002758845686913, -0.0011601640144363046, -0.034451283514499664, 0.01894386298954487, 0.0328340120613575, -0.037821561098098755, 0.04148489236831665, -0.0280686616897583, -0.027946650981903076, 0.013300011865794659, -0.007317334413528442, -0.019243566319346428, 0.006204237695783377, -0.0054076616652309895, -0.04248194396495819, -0.0027685496024787426, 0.03514230251312256, -0.030662156641483307, -0.03308941051363945, -0.03551839292049408, -0.04325229674577713, 0.0058582196943461895, 0.04345965385437012, 0.02800833061337471, -0.04147624596953392, 0.021952176466584206, -0.03846191242337227, -0.02071474678814411, -0.0006532588740810752, -0.02051728032529354, -0.02037905901670456, 0.03818665072321892, 0.024897033348679543, -0.01675664260983467, 0.02042066492140293, -0.02155020646750927, 0.010672585107386112, -0.023668015375733376, -0.021551325917243958, -0.04095993563532829, -0.04040035232901573, 0.009792872704565525, 0.024296002462506294, -0.041634451597929, -0.038879942148923874, 0.03328730911016464, 0.009662342257797718, -0.0008456483483314514, 0.026464039459824562, -0.026884807273745537, -0.0005415217601694167, 0.05729521065950394, 0.018024340271949768, -0.0004778644652105868, 0.035951681435108185, 0.004033469129353762, 0.07838256657123566, 0.01600126177072525, -0.03562695533037186, -0.008767292834818363, -0.04529622942209244, 0.031338080763816833, 0.04786105081439018, 0.015032784081995487, 0.028219839558005333, -0.018561214208602905, -0.032655395567417145, 0.023126749321818352, -0.035748835653066635, 0.008505144156515598, 0.013824550434947014, -0.0007330948719754815, 0.00024712830781936646, -0.03218083828687668, 0.011029485613107681, -0.040955230593681335, -0.030492326244711876, -0.0009777869563549757, 0.03917645290493965, 0.011568701826035976, 0.021702347323298454, -0.04803140088915825, -0.0388118252158165, 0.017411191016435623, -0.018966278061270714, 0.02723957970738411, -0.045891884714365005, -0.027857040986418724, 0.014326105825603008, -0.012760689482092857, -0.04033532366156578, 0.00439006881788373, -0.01856309175491333, -0.020410405471920967, 0.018907936289906502, 0.030684061348438263, -0.007891911081969738, -0.06093982607126236, 0.040465690195560455, -0.023107824847102165, -0.058161865919828415, 0.010221723467111588, 0.02323216013610363, -0.01430598646402359, 0.043794795870780945, -0.007803919725120068, 0.022327866405248642, -0.04417210817337036, 0.07004709541797638, -0.004454677924513817, 0.0005147898336872458, 0.0347551628947258, 0.03253304213285446, 0.009090816602110863, -0.05343502759933472, -0.006298394873738289, -0.01590721495449543, 0.012642345391213894, -0.036822497844696045, -0.03444712981581688], [-0.026007449254393578, -0.06038789078593254, 0.010844383388757706, -0.04091586545109749, 0.013895164243876934, 0.0222151018679142, -0.02454626001417637, -0.06858392804861069, -0.02544536255300045, 0.05232121795415878, 0.006765930447727442, 0.047474246472120285, -0.027237726375460625, 0.0007804030319675803, -0.010973167605698109, -0.03769427165389061, 0.039998117834329605, -0.0396004244685173, -0.03983737528324127, 0.062054041773080826, -0.04186472296714783, 0.013943251222372055, -0.003626481397077441, -0.05089417099952698, 0.030133897438645363, 0.027708787471055984, 0.015309575013816357, -0.018880993127822876, 0.024018574506044388, -0.0540405735373497, 0.02365635521709919, -0.04920508340001106, -0.016952816396951675, -0.05066433176398277, -0.01665697619318962, 0.013580807484686375, -0.058959346264600754, -0.01903117075562477, -0.057954415678977966, 0.0213201604783535, -0.062164247035980225, 0.008342440240085125, -0.04614663124084473, -0.03990922495722771, -0.023763684555888176, -0.0005573671660386026, 0.05241352319717407, 0.04298993572592735, 0.06730634719133377, -0.011526500806212425, 0.047566138207912445, -0.01817241497337818, 0.0183902308344841, 0.02413439005613327, -0.041741665452718735, -0.05562157183885574, 7.825427746865898e-05, 0.02757856994867325, 0.04383205994963646, 0.04353632032871246, -0.04793785139918327, 0.04310723766684532, 0.025117889046669006, -0.041795939207077026, -0.0400184690952301, -0.002470841631293297, 0.016073523089289665, -0.000933424977120012, -0.018569322302937508, 0.004180199932307005, -0.011391843669116497, 0.038990192115306854, 0.11952641606330872, 0.03522881120443344, 0.014499190263450146, -0.019990522414445877, -0.054572466760873795, 0.05498015135526657, 0.08947207778692245, 0.08063308149576187, 0.01043054461479187, -0.05531790852546692, 0.03964243456721306, -0.010948684066534042, 0.021732743829488754, -0.011535167694091797, 0.07726467400789261, 0.06869269162416458, -0.037602584809064865, -0.053536731749773026, -0.027070026844739914, -0.030769772827625275, 0.0727972760796547, -0.0025736172683537006, -0.05261298269033432, -0.020144611597061157, 0.07440837472677231, 0.0024356611538678408, 0.017675483599305153, 0.010735857300460339, -0.012572497129440308, -0.014659110456705093, 0.02989285998046398, -0.06305504590272903, -0.01917639747262001, 0.002551926765590906, -0.0052579548209905624, 0.007154693361371756, -0.010166035033762455, -0.03684746101498604, -0.0011765859089791775, -0.013582034036517143, 0.026942985132336617, 0.003049850231036544, -0.050749629735946655, 0.012341994792222977, -0.007535458076745272, -0.06722721457481384, -0.02081874944269657, -0.051539346575737, 0.001997902989387512, 0.050052255392074585, 0.010732672177255154, 0.11609421670436859, -0.00954726804047823, -0.03330249711871147, -0.04348399490118027, 0.032813072204589844, -0.04450472816824913, 0.013901637867093086, 0.017362726852297783, -0.019209006801247597, 0.02104489505290985, 0.043262168765068054, 0.04644349589943886, 0.04728354513645172, 0.017719924449920654, 0.0201015193015337, 0.019004611298441887, -0.04697442054748535, 0.05077677592635155, 0.0012918401043862104, 0.02842940390110016, 0.042767565697431564, -0.02431477978825569, -0.02748911827802658, -0.023729654029011726, 0.037647854536771774, 0.027035947889089584, 0.03924383595585823, -0.039395011961460114, -0.021924100816249847, -0.048547010868787766, -0.004141553770750761, 0.03923222795128822, 0.0035011449363082647, -0.04415810853242874, -0.010214448906481266, -0.03513101488351822, -0.015179195441305637, 0.043031930923461914, -0.039087388664484024, 0.044132549315690994, -0.014849638566374779, -0.04383908212184906, -0.018999798223376274, 0.04930920898914337, -0.017398392781615257, -0.03466523811221123, -0.04237576201558113, -0.045277100056409836, -0.03483963385224342, 0.04678695648908615, 0.005783610511571169, 0.0485328808426857, -0.010200886987149715, 0.012659579515457153, -0.002400500699877739, 0.02093142829835415, 0.0022697816602885723, -0.022440878674387932, -0.046934086829423904, -0.04423080384731293, -0.017347820103168488, -0.049171630293130875, 0.005243157502263784, -0.033628787845373154, 0.014362565241754055, 0.044287290424108505, -0.04740254208445549, 0.03845290467143059, -0.02069074846804142, 0.023963553830981255, 0.008403552696108818, 0.020109249278903008, -0.02259919047355652, -0.01795915514230728, -0.012197130359709263, 0.010962552390992641, 0.030008338391780853, -0.004403548315167427, -0.022939937189221382, -0.04287642985582352, -0.024472787976264954, -0.015220257453620434, -0.0015976896975189447, 0.007157471962273121, 0.040224604308605194, 0.0015857320977374911, 0.031132657080888748, -0.026426970958709717, 0.018354425206780434, 0.04317193105816841, 0.06404653936624527, 0.05808284506201744, 0.02384561114013195, 0.04823961481451988, -0.007120616268366575, -0.08334142714738846, 0.04017136991024017, -0.008975173346698284, -0.00024190513067878783, -0.028547992929816246, 0.01525425910949707, 0.002565380185842514, -0.04748685657978058, -0.05791734158992767, -0.03289864957332611, 0.038110002875328064, 0.022567007690668106, -0.01874799281358719, -0.03160697594285011, -0.035980623215436935, 0.03858724236488342, 0.02519882656633854, -0.009920644573867321, -0.024072496220469475, -0.05286736413836479, -0.03265629708766937, -0.02756408043205738, 0.018505919724702835, 0.03593701869249344, -0.010480441153049469, 0.03543692082166672, -0.015445861965417862, 0.0022603070829063654, -0.021397797390818596, 0.01850610412657261, -0.03179674595594406, -0.047093313187360764, -0.04333147034049034, -0.03857642784714699, 0.018914861604571342, 0.027060426771640778, 0.010447843000292778, 0.017454741522669792, -0.03750651329755783, 0.002772865118458867, -0.015639806166291237, 0.02555021271109581, -0.04455528035759926, 0.01808754913508892, 0.03479098528623581, 0.011664487421512604, 0.004497485235333443, 0.03594575822353363, -0.04278525337576866, -0.02900722064077854, -0.049354471266269684, 0.02660469338297844, 0.011639604344964027, -0.005285465624183416, 0.017667081207036972, 0.040346723049879074, -0.024104351177811623, 0.017507709562778473, 0.04658350721001625, 0.016386020928621292, 0.0024449415504932404, -0.004706449341028929, 0.03215092793107033, 0.0018581025069579482, 0.03387777507305145, -0.03328469768166542, 0.022249439731240273, 0.007854791358113289, 0.034248240292072296, -0.0035499229561537504, 0.02926783449947834, 0.03437868505716324, -0.015234816819429398, -0.03450732305645943, 0.010376238264143467, 0.04320142790675163, -0.019601644948124886, 0.027257420122623444, -0.028126534074544907, -0.0023264505434781313, -0.032679665833711624, -0.029729602858424187, -0.049864720553159714, 0.020816557109355927, -0.008483553305268288, -0.023458171635866165, 0.00042795849731191993, 0.011770377866923809, 0.009227166883647442, -0.029781514778733253, 0.013546950183808804, 0.011468157172203064, 0.04618716239929199, -0.02042781189084053, -0.009869242087006569, -0.009749077260494232, 0.012355937622487545, 0.004518200643360615, 0.04414183273911476, 0.03834199160337448, 0.020957225933670998, 0.04613739997148514, 0.01722288504242897, 0.02271321415901184, -0.044571779668331146, -0.03331020101904869, 0.03665260970592499, -0.03432910516858101, -0.0034312682691961527, 0.0541042722761631, 0.07810264080762863, -0.017715170979499817, -0.055527977645397186, -0.024082571268081665, -0.046319302171468735, 0.004538008943200111, 0.0005511839990504086, -0.002991810906678438, 0.013954656198620796, 0.05603576824069023, 0.018132146447896957, -0.0422864630818367, -0.05560005456209183, -0.03445958346128464, 0.012848706915974617, -0.051389824599027634, -0.054634153842926025, 0.018430417403578758, 0.02314588986337185, 0.06913087517023087, 0.05469772219657898, 0.01587850973010063, -0.03113708272576332, 0.019398318603634834, 0.021408332511782646, 0.029328444972634315, 0.016130829229950905, -0.00199401518329978, 0.030302489176392555, -0.018518412485718727, -0.04724225774407387, -0.04696106165647507, -0.034105584025382996, 0.031915176659822464, 0.010968904942274094, 0.0056225950829684734, -0.00333716650493443, -0.0292435921728611, -0.05837257206439972, -0.04820950701832771, -0.03198697417974472, 0.0019402256002649665, 0.03946626931428909, 0.018201835453510284, -0.02276577427983284, -0.03519562631845474, -0.005522882100194693, 0.04402928426861763, 0.03435537964105606, 0.009637129493057728, -0.038603998720645905, 0.01201091893017292, 0.032512083649635315, 0.03394537419080734, -0.07186047732830048, -0.020214037969708443, -0.04941997304558754, -0.03329559788107872, 0.04304377734661102, 0.0492076501250267, 0.0023997535463422537, 0.004939747508615255, -0.019899170845746994, -0.03791823610663414, 0.00873772706836462, -0.06864026933908463, 0.019658997654914856, 0.004691723268479109, -0.02689044177532196, 0.014107908122241497, -0.04109339416027069, -0.03275543078780174], [-0.025837350636720657, 0.012563944794237614, -0.018082160502672195, -0.020012831315398216, 0.046112075448036194, 0.032357294112443924, 0.04251678287982941, -0.016358308494091034, 0.04891602322459221, -0.006964818574488163, -0.03780975937843323, -0.05043606087565422, -0.04953184351325035, -0.057760026305913925, -0.004129721783101559, 0.030301306396722794, -0.020910250023007393, -0.020532220602035522, -0.02559533156454563, -0.04595552012324333, -0.036090534180402756, -0.0029355408623814583, -0.08173153549432755, 0.0044684018939733505, -0.03753414377570152, -0.04189278185367584, -0.050989292562007904, 0.02765500359237194, -0.050534866750240326, -0.0764261782169342, -0.03919726610183716, 0.04123523831367493, 0.030106427147984505, -0.04263468086719513, -0.0327087864279747, -0.03131089732050896, 0.021738160401582718, -0.022066686302423477, -0.04664545878767967, 0.013449517078697681, 0.0013400156749412417, -0.005482348147779703, -0.023046839982271194, -0.014050358906388283, 0.037829410284757614, -0.019831810146570206, -0.009000302292406559, -0.04743751883506775, 0.02230113372206688, -0.056858088821172714, -0.06303811818361282, -0.03422939404845238, 0.008691789582371712, -0.025968044996261597, -0.07313893735408783, -0.027132179588079453, 0.03371765837073326, 0.03450782969594002, -0.026572979986667633, 0.013894602656364441, -0.033905819058418274, -0.007921483367681503, -0.021131940186023712, -0.022473454475402832, 0.04918390512466431, -0.008754478767514229, -0.007913714274764061, 0.02844877913594246, 0.044931747019290924, 0.02173433266580105, 0.01606139913201332, 0.1164318099617958, 0.05477100610733032, 0.0188338253647089, 0.009896899573504925, -0.005729044321924448, -0.0149784991517663, -0.013731037266552448, 0.003804886480793357, -0.0486583411693573, -0.029507018625736237, -0.013123425655066967, 0.0019709356129169464, 0.0005166393239051104, -0.020436225458979607, -0.025835322216153145, -0.022664310410618782, 0.08825118094682693, -0.01465296559035778, 0.01129879616200924, -0.06591305881738663, 0.01965835876762867, 0.05275219678878784, 0.006324658636003733, -0.03224746137857437, 0.06903728097677231, 0.10503223538398743, 0.08051671087741852, 0.11118394136428833, 0.10999071598052979, 0.04314367473125458, -0.0020720467437058687, 0.04170038551092148, -0.014395841397345066, -0.016849972307682037, -0.047755006700754166, 0.03237597271800041, 0.0385582372546196, -0.05298234149813652, 0.01942458190023899, -0.029409265145659447, -0.0163640808314085, -0.024905528873205185, 0.013650277629494667, -0.050613224506378174, 0.03441699221730232, 0.0033531440421938896, 0.05428532138466835, 0.013833926990628242, 0.07944834977388382, 0.0012575548607856035, 0.014059390872716904, -0.04336871579289436, 0.022375132888555527, 0.012607090175151825, 0.012142207473516464, 0.038147181272506714, 0.0047677201218903065, -0.020053206011652946, -0.029675422236323357, 0.04204392805695534, 0.027531689032912254, -0.014796595089137554, -0.010978668928146362, -0.03008577600121498, -0.022791311144828796, -0.026364412158727646, 0.022435078397393227, 0.010661285370588303, 0.023551518097519875, -0.04800252243876457, 0.02252437360584736, 0.026875652372837067, 0.03511088714003563, 0.03304598107933998, -0.025223584845662117, -0.04764246940612793, -0.01281756442040205, 0.03927549719810486, 0.009318219497799873, 0.04508931189775467, 0.01534613873809576, -0.037405356764793396, -0.03912917524576187, 0.040747564285993576, -0.047697197645902634, -0.0470036081969738, 0.04436728358268738, 0.04681795462965965, -0.00546374311670661, 0.007965298369526863, 0.02170107699930668, -0.007029206026345491, -0.047008298337459564, -0.011079699732363224, 0.021034246310591698, 0.03535044938325882, 0.03729214146733284, -0.03142279013991356, -0.03449790179729462, 0.0023371735587716103, -0.04701656848192215, 0.008058775216341019, -0.028924914076924324, 0.01762145198881626, -0.038697827607393265, -0.033241674304008484, 0.039091724902391434, -0.040644511580467224, -0.033414941281080246, 0.04080600664019585, -0.027010777965188026, -0.027482856065034866, -0.031013602390885353, 0.04301067069172859, 0.012118793092668056, 0.0036731536965817213, 0.03130671754479408, 0.031058721244335175, 0.022976534441113472, -0.013700800016522408, 0.005198607686907053, 0.04403046518564224, 0.02514568716287613, -0.01759456656873226, 0.04175189137458801, -0.014148120768368244, -0.008656550198793411, -0.03135630860924721, 0.036539800465106964, -0.019307710230350494, 0.04960167035460472, -0.011676270514726639, 0.043438348919153214, -0.062243249267339706, -0.013054982759058475, 0.032109301537275314, 0.037574850022792816, -0.04727575555443764, -0.027652546763420105, -0.0038530072197318077, 0.03896066173911095, -0.055558934807777405, -0.06968668848276138, 0.007568496745079756, -0.05128099396824837, 0.011244629509747028, -0.023345060646533966, 0.0277683325111866, 0.031093575060367584, -0.025311022996902466, 0.005780816078186035, 0.006899721920490265, -0.024624908342957497, -0.025560807436704636, 0.040347352623939514, -0.03528027608990669, 0.05060134455561638, -0.02483847178518772, -0.04834563285112381, 0.004166973754763603, -0.01539326086640358, -0.008725973777472973, -0.014682509005069733, -0.03270568698644638, -0.030611112713813782, -0.03207211196422577, 0.041512250900268555, -0.054617106914520264, 0.012167958542704582, -0.01777995191514492, 0.0207618847489357, 0.02425180934369564, -0.05112588405609131, 0.04257490485906601, -0.009148859418928623, -0.05748860538005829, 0.0018347869627177715, -0.02355378121137619, 0.034451715648174286, -0.01611645705997944, -0.027799081057310104, 0.003906387835741043, -0.028689224272966385, -0.005724957678467035, -0.03175470978021622, -0.022660432383418083, 0.006457400508224964, -0.0242020133882761, 0.014980158768594265, -0.017053427174687386, 0.012355165556073189, 0.006064263638108969, -0.04168616980314255, 0.025434818118810654, 0.03821814805269241, 0.014301018789410591, -0.04768367484211922, 0.012336479499936104, 0.03406365588307381, -0.03472355380654335, -0.030790038406848907, 0.0234989020973444, 0.002187148667871952, -0.008004403673112392, 0.04892461374402046, -0.01803373545408249, 0.02340344339609146, 0.04760259762406349, 0.011359842494130135, -0.035837069153785706, -0.00682305172085762, -0.009421714581549168, 0.005366496741771698, -0.04110025614500046, 0.031779397279024124, -0.007188793271780014, 0.02106940746307373, -0.00753017608076334, -0.036853499710559845, -0.018188612535595894, 0.009149014949798584, 0.026914449408650398, 0.043531034141778946, -0.0011578843696042895, 0.042563002556562424, 0.034285448491573334, -0.022494595497846603, 0.011552066542208195, -0.022249791771173477, -0.03158491477370262, 0.015018352307379246, 0.0028900534380227327, -0.04159286990761757, 0.022059135138988495, 0.028674105182290077, -0.02329225465655327, -0.022571489214897156, -0.026118777692317963, -0.004309923388063908, -0.027790870517492294, 0.034143753349781036, 0.011623243801295757, 0.02527753822505474, 0.04644230380654335, 0.007509917486459017, -0.02878984436392784, 0.031738050282001495, -0.03192674368619919, -0.04035622254014015, -0.03275936469435692, -0.004795013926923275, 0.025346355512738228, 0.040612995624542236, 0.01089993491768837, -0.04213258624076843, -0.04256945848464966, -0.0031920645851641893, -0.03669678419828415, 0.006419495679438114, 0.006984283681958914, -0.01983734406530857, 0.015403741970658302, 0.039817504584789276, 0.011871731840074062, -0.04827847704291344, -0.02978353202342987, 0.05059278756380081, 0.04689228907227516, -0.026271089911460876, -0.04129829630255699, 0.01019885204732418, 0.015658056363463402, 0.0037704326678067446, 0.047841012477874756, -0.000116596398584079, 0.0646611824631691, 0.012425395660102367, 0.014927064999938011, -0.009929923340678215, 0.022200368344783783, -0.032071083784103394, 0.0391673669219017, -0.027767974883317947, -0.014829576015472412, -0.018709566444158554, 0.041273877024650574, 0.004183643031865358, 0.0141068110242486, -0.01988830603659153, -0.02603949047625065, 0.00663925614207983, -0.02391877770423889, -0.0423356257379055, -0.00476251682266593, -0.01778385601937771, 0.03831658139824867, -0.015564950183033943, -0.008364196866750717, -0.03882730379700661, 0.02365863509476185, 0.02296515181660652, -0.007008973974734545, -4.701591387856752e-05, 0.007556198164820671, -0.04113481938838959, -0.04245491698384285, -0.02411774732172489, 0.03367313742637634, -0.03965860977768898, 0.011170933023095131, 0.02872203290462494, 0.0006062330794520676, 0.06848947703838348, -0.012791259214282036, -0.03280342370271683, -0.02438446134328842, 0.008520870469510555, -0.02365249954164028, -0.020853321999311447, -0.007968411780893803, -0.0040494417771697044, 0.050768423825502396, -0.039645858108997345, 0.015910346060991287, -0.004207331221550703, 0.03375235199928284, 0.08283589035272598, 0.03303427994251251, 0.02178480662405491], [0.005215886980295181, -0.016408199444413185, 0.010867968201637268, -0.017261987552046776, -0.018411675468087196, -0.03695499524474144, -0.0012727201683446765, 0.012108894065022469, 0.012650244869291782, -0.0055536143481731415, -0.045086659491062164, -0.021603573113679886, -0.04722163826227188, -0.009440794587135315, 0.024897368624806404, -0.04233131557703018, -0.03832786902785301, 0.019135018810629845, -0.032860592007637024, -0.03256450220942497, -0.015964699909090996, -0.047738831490278244, -0.02222236804664135, 0.035971760749816895, -0.0020926487632095814, -0.05835023522377014, 0.020946349948644638, -0.0206382405012846, 0.056938186287879944, 0.040930625051259995, -0.012151465751230717, -0.025170691311359406, 0.026931019499897957, -0.005199749022722244, -0.0279478058218956, 0.04758584871888161, 0.04024374485015869, 0.010523293167352676, -0.018389549106359482, -0.07096149027347565, 0.005557198543101549, -0.04371044784784317, -0.00884236115962267, 0.02687080018222332, -0.05997074395418167, -0.07335907220840454, -0.057558342814445496, -0.019429616630077362, 0.061325058341026306, 0.012447625398635864, 0.012682194821536541, -0.023843204602599144, -0.0651068314909935, -0.023177189752459526, 0.05090326443314552, 0.0236187931150198, -0.06389439105987549, -0.028471173718571663, -0.013351143337786198, -0.04187785089015961, -0.003148120129480958, 0.004631082061678171, -0.039987921714782715, -0.0025108088739216328, 0.03775694593787193, 0.04900721460580826, 0.08336275815963745, 0.0217015091329813, 0.02846599370241165, -0.005942369811236858, -0.07962295413017273, -0.08550702780485153, -0.061771925538778305, 0.013256708160042763, -0.028539441525936127, 0.029404375702142715, 0.02159968949854374, 0.03624057024717331, -0.007157792802900076, -0.039114370942115784, -0.077784463763237, -0.03416774049401283, -0.0034918251913040876, 0.014091829769313335, -0.03077261708676815, -0.07160701602697372, -0.05112021416425705, -0.06419910490512848, 0.031074868515133858, -0.03089667111635208, 0.14005520939826965, 0.11664503812789917, 0.02616952545940876, 0.0800848975777626, -0.01354255247861147, -0.037313755601644516, -0.07993859052658081, -0.057645656168460846, 0.025698581710457802, 0.0211793165653944, -0.07472185790538788, 0.0026144753210246563, -0.031349871307611465, 0.05083745718002319, 0.01806621439754963, -0.05247218534350395, -0.007974219508469105, 0.04356240853667259, 0.053905729204416275, -0.049505870789289474, 0.03985566645860672, 0.0785674899816513, -0.029824435710906982, 0.06427113711833954, -0.07573981583118439, 0.04491100832819939, -0.00531912874430418, 0.018822621554136276, -0.00037641910603269935, 0.01971816085278988, -0.03872082754969597, -0.02075066976249218, 0.012062536552548409, 0.0670699030160904, -0.003320310264825821, 0.04454338178038597, 0.021273475140333176, 0.020613757893443108, -0.016699206084012985, 0.015482462011277676, -0.03360604867339134, -0.015654221177101135, -0.033475376665592194, -0.017987338826060295, 0.013756184838712215, 0.005802870728075504, -0.018666302785277367, 0.03400972858071327, 0.03934419900178909, 0.013735080137848854, 0.01702834852039814, 0.0014895758358761668, -0.030471086502075195, -0.04393088445067406, 0.04516476392745972, 0.017064940184354782, 0.02513873763382435, 0.022137176245450974, -0.0012816379312425852, 0.017174329608678818, 0.047341570258140564, 0.021899493411183357, 0.014434631913900375, 0.006061056163161993, 0.03392468020319939, 0.019734961912035942, 0.049377452582120895, 0.04669604450464249, -0.0037027618382126093, -0.03755941241979599, 0.024853207170963287, 0.03845217823982239, 0.03511643037199974, 0.04794997721910477, -0.011029970832169056, 0.02493588626384735, -0.018980972468852997, 0.009835431352257729, 0.018955765292048454, 0.04762296751141548, 0.014178476296365261, -0.044625174254179, -0.03485002741217613, 0.03882165998220444, -0.00625578360632062, 0.015677504241466522, -0.028491158038377762, 0.0033751896116882563, -0.02201150916516781, -0.027936521917581558, -6.506518548121676e-05, -0.008006738498806953, 0.020783601328730583, 0.0026206360198557377, -0.01925141178071499, 0.044594984501600266, 0.022687144577503204, -0.043461330235004425, -0.021501023322343826, -0.011317145079374313, -0.0171863604336977, -0.04851647466421127, -0.021262360736727715, 0.02987542375922203, -0.03724239394068718, -0.026491710916161537, 0.02713698521256447, -0.0058946795761585236, -0.04597296565771103, -0.019420266151428223, -0.04229317232966423, -0.017884831875562668, -0.05344703048467636, 0.039509665220975876, 0.08563544601202011, -0.04837039113044739, -0.02333894744515419, -0.0474952757358551, 0.018438950181007385, 0.07193189114332199, 0.007178825791925192, 0.02190396375954151, -0.03884286805987358, -0.03559599071741104, -0.049159251153469086, 0.010877572000026703, 0.06266015768051147, 0.0468580387532711, 0.003281466895714402, -0.013464316725730896, 0.06429805606603622, -0.042329490184783936, -0.053723979741334915, -0.012833853252232075, 0.02913450263440609, -0.02648640237748623, -0.033826012164354324, -0.008523436263203621, -0.042842209339141846, 0.018333129584789276, 0.026330456137657166, 0.05100708082318306, -0.054796911776065826, -0.009461226873099804, -0.03273268789052963, -0.018865840509533882, -0.03082129918038845, 0.007492697797715664, 0.03361794725060463, 0.0014611105434596539, 0.020121043547987938, 0.009725923649966717, 0.01078873872756958, -0.019604407250881195, -0.0409572459757328, -0.04371684789657593, 0.007890421897172928, -0.0021030602511018515, 0.008172503672540188, -9.381282143294811e-05, -0.02272789739072323, 0.03969099000096321, 0.018408510833978653, 0.03880942240357399, 0.048127755522727966, -0.05022270977497101, 0.02580573968589306, 0.02006852813065052, -0.025218145921826363, -0.041555989533662796, -0.034384835511446, 0.02746402472257614, -0.004832052160054445, -0.030510900542140007, -0.0440078042447567, 0.049868714064359665, 0.036860089749097824, 0.04841255024075508, 0.046562787145376205, 0.021671194583177567, 0.008101983927190304, -0.04098893702030182, -0.01955391839146614, 0.04351911321282387, -0.03697052597999573, -0.035270776599645615, 0.03859091177582741, -0.03863431140780449, 0.017529526725411415, -0.004661881364881992, -0.02556113339960575, -0.022377263754606247, -0.009733728133141994, -0.022640839219093323, -0.02818879298865795, -0.04039900749921799, 0.0004721915756817907, 0.049638137221336365, -0.018230650573968887, -0.029401568695902824, 0.021127425134181976, 0.03291880339384079, 0.024355392903089523, -0.002689225133508444, -0.021224776282906532, -0.04604998975992203, -0.03486489877104759, -0.012576392851769924, 0.034958548843860626, 0.011300334706902504, -0.047718483954668045, -0.015274914912879467, -0.04563422501087189, -0.02347697503864765, 0.03502495959401131, -0.03053334169089794, 0.030835120007395744, 0.025799760594964027, -0.03436949849128723, -0.012641463428735733, 0.011609242297708988, 0.03795132040977478, -0.03786129131913185, 0.03531705215573311, -0.026014482602477074, -0.023192668333649635, 0.007539170328527689, -0.026156198233366013, 0.02794627472758293, -0.010875045321881771, -0.04658787325024605, -0.040478095412254333, -0.048700664192438126, 0.017239410430192947, 0.04991786181926727, 0.03749503940343857, -0.016396092250943184, 0.03196170926094055, -0.011131254024803638, 0.04277719184756279, -0.04205838963389397, -0.021242061629891396, 0.028791774064302444, -0.04182467237114906, 0.007942243479192257, -0.040616050362586975, 0.004417868796736002, -0.05406620353460312, -0.030663039535284042, 0.0068107713013887405, 0.1032433956861496, 0.1167987734079361, 0.08672554045915604, 0.0543183833360672, 0.04049404338002205, -0.07301057130098343, -0.08212946355342865, -0.05475856736302376, -0.04271499812602997, -0.014810280874371529, -0.019982952624559402, -0.043458279222249985, -0.01431929413229227, -0.04149359092116356, 0.03579135984182358, 0.02426448091864586, 0.006738332100212574, 0.03675776347517967, 0.047460224479436874, 0.021641379222273827, -0.03477302938699722, 0.0428752563893795, 0.023177582770586014, -0.02497991919517517, 0.0204192865639925, -0.013116785325109959, 0.00850540492683649, 0.03925815969705582, -0.0266520194709301, -0.0348954014480114, 0.011041664518415928, 0.03249809518456459, -0.03640109300613403, -0.00194740598089993, 0.012312560342252254, -0.03530659154057503, -0.0409543439745903, 0.03194085508584976, -0.016528431326150894, -0.05725706368684769, 0.05940276384353638, 0.0035710143856704235, 0.015884682536125183, -0.027573954313993454, 0.05016866698861122, 0.007608737330883741, -0.009214083664119244, -0.04834049567580223, -0.06422561407089233, -0.012689412571489811, -0.00475300895050168, 0.02727781981229782, -0.02800237387418747, -0.01996019296348095, -0.03640503063797951, 0.046290405094623566, 0.026541927829384804, -0.02554583176970482, -0.054275788366794586, -0.04783813655376434], [0.016477741301059723, -0.001183098996989429, 0.02276569791138172, -0.010537689551711082, -0.012411385774612427, -0.03321380540728569, -0.04609057307243347, -0.018871748819947243, -0.002311146119609475, 0.047672610729932785, 0.04914386197924614, 0.03477853536605835, 0.01568366028368473, -0.036456793546676636, 0.041440293192863464, 0.017341414466500282, -0.0066300961188972, 0.02012283354997635, 0.015173936262726784, -0.01605359837412834, 0.03678536415100098, 0.041845858097076416, -0.03323328122496605, -0.05428658053278923, 0.026320671662688255, 0.00513156782835722, -0.011634547263383865, 0.04552401602268219, -0.007680907379835844, 0.056239593774080276, 0.031193586066365242, 0.011781192384660244, 0.04953102767467499, 0.007053781300783157, -0.04863155260682106, 0.053144942969083786, -0.01584506593644619, -0.0003537020238582045, 0.003425521543249488, -0.04295763000845909, 0.01897435635328293, -0.0469885915517807, -0.01962660625576973, 0.04350708797574043, -0.01566958613693714, -0.0004195091896690428, -0.042591482400894165, 0.03216255456209183, 0.012142888270318508, -0.034048423171043396, -0.04149752855300903, 0.03262115269899368, -0.009222589433193207, -0.015911001712083817, 0.026574919000267982, -0.04016242176294327, 0.020945146679878235, 0.011491397395730019, -0.03804750740528107, 0.014310206286609173, 0.021812181919813156, -0.00519538065418601, 0.007779066916555166, 0.0014011876191943884, -0.04820328950881958, 0.0019722015131264925, -0.014438400976359844, 0.048516109585762024, -0.017459161579608917, -0.010942799970507622, -0.010467399843037128, 0.03167128935456276, 0.05364874750375748, 0.04309607669711113, -0.009836718440055847, -0.04738865792751312, 0.040093567222356796, -0.010819557122886181, 0.006265050731599331, 0.038358062505722046, -0.03480768948793411, -0.050324566662311554, -0.011063032783567905, -0.050811197608709335, -0.004475829657167196, -0.02935028448700905, -0.03459525480866432, -0.00669801514595747, 0.01506101991981268, 0.038051821291446686, -0.037736788392066956, -0.05288488790392876, -0.018382957205176353, -0.03592244163155556, -0.015324799343943596, -0.0024949368089437485, -0.022178174927830696, -0.05193423107266426, 0.009473131038248539, 0.01787429489195347, 0.031925130635499954, -0.05915796384215355, 0.033140867948532104, -0.02347797341644764, 0.031905028969049454, -0.005606974475085735, 0.018783792853355408, 0.05310942232608795, 0.008637572638690472, -0.006205196026712656, -0.008435391820967197, 0.02658715285360813, -0.02968839928507805, -0.029383577406406403, -0.0346728153526783, 0.06518153101205826, -0.00406501954421401, -0.04803382232785225, -0.03849894925951958, 0.03859454393386841, 0.04207618162035942, 0.01340695284307003, 0.017374245449900627, -0.0245649553835392, 0.01604355312883854, -0.01579243876039982, -0.045781366527080536, -0.013980715535581112, -0.04752148315310478, -0.028985604643821716, -0.038640346378088, -0.01365871261805296, 0.002259917091578245, -0.045519981533288956, 0.022163745015859604, 0.024914490059018135, -0.036086782813072205, 0.010793987661600113, 0.01142912544310093, -0.022749999538064003, -0.02594219148159027, 0.042770929634571075, 0.019053278490900993, -0.01770947501063347, 0.003858390497043729, -0.04398806393146515, 0.04449997469782829, -0.02285625971853733, -0.00626420509070158, -0.026432078331708908, 0.04245738685131073, -0.03384188562631607, 0.0315544493496418, 0.031783562153577805, -0.02996865101158619, -0.014683013781905174, -0.0165574848651886, 0.0009168086689896882, -0.03083161823451519, 0.0018851698841899633, 0.01987079158425331, -0.03567836061120033, 0.0038812276907265186, 0.01397816650569439, -0.033900029957294464, 0.0036422640550881624, -0.014499121345579624, -0.006441360805183649, -0.0196665171533823, -0.013021296821534634, 0.001620784169062972, -0.029507145285606384, 0.039488621056079865, 0.03537745028734207, 0.036491524428129196, 0.04483798146247864, 0.037008918821811676, -0.02806020900607109, -0.00573012325912714, -0.014890741556882858, 0.02473955973982811, -0.04198751598596573, -0.0237724706530571, -0.03311222419142723, 0.03901742771267891, -0.010453915223479271, 0.032744891941547394, 0.008436114527285099, -0.015006503090262413, -0.020792590454220772, -0.04689672589302063, 0.04357626661658287, 0.013366719707846642, 0.032276127487421036, -0.023665117099881172, 0.03979652374982834, -0.026015501469373703, -0.041351161897182465, -0.04158886894583702, 0.030040167272090912, -0.04466535896062851, -0.008431059308350086, 0.038372915238142014, -0.003707192838191986, -0.01139366440474987, -0.045771628618240356, -0.004760578740388155, 0.048536185175180435, 0.01602983847260475, 0.005102812312543392, 0.040543992072343826, 0.020643575116991997, 0.04701203107833862, 0.03905463591217995, -0.007516597397625446, 0.043056804686784744, 0.012021087110042572, -0.00996814388781786, -0.057050250470638275, 0.015955273061990738, 0.003441762877628207, 0.00321975932456553, 0.03603420779109001, -0.03245050832629204, -0.04303304851055145, 0.037976693361997604, -0.026584535837173462, -0.016957975924015045, -0.03635212779045105, 0.03483808785676956, 0.020552966743707657, -0.0078017632476985455, 0.04927779734134674, 0.016557715833187103, 0.017884721979498863, -0.018490618094801903, -0.03056599572300911, 0.024260591715574265, 0.004552109632641077, 0.006307036150246859, -0.03523438051342964, 0.03894795477390289, -0.015517034567892551, 0.04138487949967384, -0.030026938766241074, -0.009472013451159, -0.026908839121460915, 0.04603317752480507, -0.018484992906451225, 0.04899675026535988, 0.03887980803847313, 0.03205506131052971, 0.03844853863120079, -0.015240300446748734, -0.0478222481906414, -0.049082133919000626, 0.047531068325042725, -0.011598595418035984, -0.03644688427448273, 0.0020695107523351908, -0.024693017825484276, 0.029133697971701622, -0.03497839346528053, -0.021410007029771805, 0.013350455090403557, 0.03504517301917076, 0.024132926017045975, 0.0036441741976886988, -0.005662308074533939, 